1028 128
18906 -0.22224388 0.30056396 -0.15225054 -0.38778153 0.21029437 -0.08994254 0.08183655 0.2868949 -0.011219539 0.8820129 -0.12752862 0.10934479 -0.06030281 -0.2957056 0.08180061 -0.11689671 0.25555468 -0.3076036 -0.45544338 -0.08185475 0.11095409 -0.07519954 -0.28729782 -0.33995742 0.08541715 0.7601923 0.09135668 -0.15895297 0.03656923 -0.34651425 -0.07632497 -0.24522722 -0.41592565 0.10741904 -0.43590623 0.13707155 0.5429947 -0.36605388 0.17020813 0.32896903 -0.52483654 0.122119196 -0.45848864 -0.5252242 -0.22461013 0.24151975 -0.31351453 0.034337264 -0.4779045 0.2620545 -0.04138958 -0.18448023 0.6209526 0.017519386 0.45873672 0.417505 0.17238739 -0.56933826 0.15266865 -0.26149616 0.29495507 0.23078017 -0.34423718 0.12378307 -0.3665645 -0.3656682 -0.31571427 0.29292053 -0.088082515 -0.5938648 0.20569386 0.12207032 0.23242256 0.64700913 0.09822511 0.00901627 0.08629817 0.5911662 -0.38815925 -0.5153661 0.021154886 0.13978128 -0.31920546 0.20594485 0.2581793 0.4275177 0.18732315 -0.42549142 0.48629236 0.4311705 -0.43574554 -0.04308679 -0.4480347 0.20909223 -0.5426248 -0.038067434 -0.48309168 -0.0050099697 -0.30262393 0.283545 -0.5968265 0.10425304 0.2672976 0.050365355 -0.418885 -0.16500494 0.18546948 0.00048634998 -0.118941374 -0.3427553 -0.094108045 0.20506255 -0.6329888 -0.37026867 0.22518726 0.24083918 -0.12069846 0.06621953 0.28687453 0.07836065 0.12084244 -0.58257556 0.14892454 -0.53751296 -0.6383851 -0.7852448 -0.71793044 -0.17323886
19757 -0.3167353 0.39066058 0.0903533 -0.31599778 0.3503711 0.14774516 -0.07654596 0.18309437 0.14079122 1.0495806 -0.3275811 0.18466772 -0.34712178 -0.17645216 0.099583834 -0.17990738 0.22386916 -0.22917163 -0.4263271 0.32981813 -0.08016681 -0.10841493 -0.23487328 -0.5340833 -0.19951881 0.6202784 0.14728814 -0.37161055 -0.079337314 -0.25567013 -0.04202928 -0.05178909 -0.45548114 0.07872151 -0.5365025 0.036821406 0.5936182 -0.5244323 0.22263467 0.4257315 -0.45128298 0.14688589 -0.33056942 -0.1748858 -0.21558505 0.3536065 -0.4083871 0.09270966 -0.35899335 0.3011217 0.014477039 0.1364207 0.57418036 0.17291808 0.15432335 0.45054573 0.07874949 -0.6203099 0.20324574 -0.122926496 0.15564077 0.151653 -0.2336069 0.0171882 -0.09856795 -0.43839973 -0.3121311 0.42030877 -0.07468378 -0.40127462 0.17765374 0.3984749 0.10944875 0.5497889 0.04299817 -0.036877688 -0.4583261 0.38294822 -0.3269478 -0.2979133 -0.0960427 0.2900328 -0.41844139 0.34203145 0.29977545 0.5213912 0.30183548 -0.26286787 0.54986393 0.3027671 -0.09872251 0.0386983 -0.34755737 0.117417365 -0.68235224 -0.19196866 -0.5203749 -0.4323565 -0.31795478 0.32066712 -0.47405857 0.03988235 0.075450994 -0.118690014 -0.26197472 -0.006686539 0.4681176 -0.054937854 0.16695908 -0.33283797 0.04498612 0.1905975 -0.4846709 -0.5154863 0.028701115 0.23570172 -0.025011841 0.076377906 0.35790932 -0.007592585 0.424275 -0.28632665 0.20952983 -0.24817017 -0.90472317 -0.7057874 -0.7009821 -0.05021757
14181 0.06277766 0.2096021 -0.11551317 -0.3754642 0.27986887 0.08871497 -0.2140811 0.025434617 0.010901639 0.6834642 -0.37903845 0.24372125 -0.040343408 0.023949098 -0.029387202 0.22103904 0.06151885 -0.056505196 -0.44308582 0.12246303 0.27300268 -0.1729042 -0.10428678 -0.15766709 -0.1857422 0.32662395 -0.18556817 -0.86504555 0.07274796 -0.6051335 -0.011207756 -0.2925745 -0.048714947 0.48868033 -0.47959515 0.4310553 0.13134634 -0.6749269 -0.39906386 0.046606727 -0.3328839 -0.23072122 -0.19211166 -0.47160742 -0.43349314 0.4940187 -0.26565048 -0.3296871 -0.24818045 0.13750523 0.102123275 -0.037105415 0.6810254 -0.27329028 0.15418772 0.9526454 0.11903992 -0.5809683 0.26637128 -0.3338721 0.611307 0.3168421 -0.39363763 0.03454589 -0.48753586 -0.16444479 0.1347584 0.48213398 -0.15374137 -0.12663281 -0.045469806 -0.09744006 0.26214322 0.69391954 0.1981947 0.17662285 -0.401549 0.36949235 -0.33000934 -0.05977077 0.08548859 0.051133778 -0.3856973 0.31008148 0.24879792 0.011451318 0.029533345 -0.250386 0.24118431 -0.2976578 -0.28564742 -0.44306836 0.0068785874 -0.25309592 -0.24159594 0.29513153 -0.41870537 -0.4554741 -0.5622305 0.69249994 -0.25665405 0.24668263 0.47511926 -0.38033772 -0.022875793 -0.49916148 0.2779058 0.41121817 0.0026591946 -0.16224855 0.06074359 0.3197394 -0.36649635 -0.63836086 0.22072506 0.13683389 -0.36419532 0.30579048 0.6043928 0.015988288 0.11044005 -0.2644725 -0.14380655 -0.1781797 -0.72150224 -0.00016995228 -0.56718206 -0.06764821
7362 0.059804697 0.028477281 0.26733914 0.61471516 0.8497373 -0.10136325 -0.515222 -0.28099588 -0.020920297 0.35089502 0.3348202 0.17004374 -0.15468805 -0.68807703 -0.5988029 0.32779783 -0.0985793 -0.2697643 -0.10260963 -0.2752972 -0.25481 -0.28071567 0.2211739 -0.46644846 -0.6732885 0.09215372 -0.16180922 -0.78617585 -0.472215 -0.65681654 -0.22198394 -0.51600784 -0.40659028 0.8231664 -0.23522703 0.08568622 0.5572172 -0.4632076 0.0521625 0.26819292 -0.5880268 -0.11172378 0.13419306 -0.4667654 0.07676481 -0.009531442 0.2762921 -0.069542445 -0.6938436 0.05851047 -0.0030235306 -0.79018015 0.30256876 -0.18284091 -0.11413938 0.83863366 -0.085424446 -0.60512 -0.7072699 -0.3144915 0.5929847 -0.12535986 0.003662147 -0.4268645 -0.10477981 0.21607915 0.015928263 0.23974952 0.17785265 0.293312 0.5034505 -0.9016869 -0.25032786 0.18027052 -0.45158148 -0.019327318 -0.40022704 -0.2627503 0.058904782 -0.1808762 -0.107751966 0.031002702 0.24469161 0.42969665 -0.011570521 0.5727014 0.41576284 -0.35331166 -0.32003745 -0.39843512 0.32609552 -0.5456525 -0.33516002 0.26400852 -0.093415655 -0.25709313 -0.019344047 -0.73641 -0.21952532 0.4827207 -0.6954967 0.03683926 0.06069918 -0.50829613 0.0577519 -0.014475187 0.38331223 0.18809009 0.043776352 -1.0991558 -0.011781661 -0.059913076 0.3104222 -0.3163873 0.66367847 -0.15366788 -0.21013442 0.25340262 0.42133123 -0.5709786 0.036273558 -0.37227035 0.38733736 -0.010716267 -0.3827499 -0.031083612 -0.43987823 0.20017473
6940 -0.25022843 -0.2941537 0.2637391 -0.17187865 0.4882195 0.3942628 -0.083877206 -0.2749717 -0.5281003 0.2376613 0.23561333 0.42197588 0.088750474 -0.64317447 0.11663472 -0.49322507 0.20643374 -0.32551023 -0.18726861 0.019418487 -0.22573186 -0.16008294 -0.10399516 -0.2365301 0.22719678 0.27117202 1.0473797 -0.6496161 0.061160296 -0.31564716 0.23977198 0.016113557 0.11025361 0.1903298 -0.5338445 -0.23300727 0.044578895 -0.64530796 -0.14618607 0.01912114 -0.2583208 0.588692 -0.4612771 -0.4610601 0.81092846 -0.30893654 -0.7317543 -0.25830892 -0.09979857 0.09615432 0.34563822 -1.1145035 0.20948248 0.14646417 0.1555292 0.6774967 -0.23615679 -0.67339176 0.113316625 -0.030712811 0.52136296 0.7494888 -0.1564605 -0.13568047 -0.41187355 -0.026061034 -0.38762432 0.21563053 0.36253926 -0.20289972 -0.03473193 -0.8296806 0.026954202 -0.19517009 -0.29888672 -0.07965727 0.18210776 0.22295158 -0.031739477 -0.058307365 -0.5811455 0.19481947 0.10697228 0.2747458 0.03927618 0.091912314 0.6868537 -0.01863981 0.3218675 -0.033176716 -0.25834495 -0.31457382 0.16243334 -0.0014870937 -0.33653542 0.12896149 -0.19882725 -0.48288694 -0.28502643 0.114134856 -0.06517255 0.23449203 -0.31320658 -0.083316 0.72614384 0.27371755 -0.088731125 -0.49904373 0.18989486 -0.54952776 0.51475585 0.17889726 -0.15557228 -0.40538815 0.017704766 -0.1423311 0.15847929 -0.49426508 0.41646805 0.614266 0.03926355 -0.7841382 -0.067535594 -0.13111119 -0.5029341 -0.40223178 -0.52554417 -0.22284198
9138 0.3534897 -0.19804174 0.249213 -0.36530936 0.7681373 0.76218563 -0.2543394 -0.050542783 -0.14481758 0.25339702 -0.29718465 -0.30699554 -0.22604845 -0.33624607 -0.3337215 -0.071326524 0.1646629 -0.87882626 -0.77448416 0.0722937 -0.1679684 -0.13849187 -0.069284596 -0.23109786 -0.39832163 0.30122584 -0.034715664 -0.4403024 -0.26641175 -0.22191846 0.047379475 0.21849476 0.15215857 0.32345268 -0.23883756 -0.1487685 0.079729326 0.0076910886 -0.088104255 0.3788511 -0.12924281 0.09464978 -0.05886218 -0.21997358 -0.20766865 -0.42199266 0.4784414 -0.41854116 -0.4742285 0.26186502 0.4192223 -0.9883214 -0.2837419 0.30476975 0.40335274 0.3900247 0.018498586 -1.4924865 0.0032884844 0.38436246 0.41554233 -0.37452307 0.20889518 -0.057249088 -0.3458426 -0.23420165 -0.45082548 0.24312319 -0.45841286 0.36859944 0.4392988 -0.3101974 0.003628191 0.52411973 0.09256049 0.23683971 0.15001102 -0.28122738 -0.569971 -0.3933868 -0.26196697 0.25368014 -0.1492902 -0.26647884 -0.47195917 0.20247866 0.027456107 -0.27895662 -0.062059402 -0.17627302 -0.5655914 -0.09362648 0.09654419 0.034118317 -0.17646001 -0.04031674 -0.4842644 -0.08882242 -0.89930636 0.17457306 -0.05201879 -0.15368815 0.1747579 0.0920532 0.021394927 -0.84003633 0.31791002 -0.3076869 0.28473958 -0.33939624 0.029574137 0.03719991 0.2842027 0.119565725 -0.26891464 -0.040739987 -0.060332894 -0.04931458 0.49837536 0.3616111 0.1837153 -0.45607832 -0.14046857 0.27403754 -0.4963869 0.13411695 -0.8215613 -0.056617614
10783 -0.42992005 -0.0070946557 0.31356755 0.16440827 0.9113211 0.3310016 -0.3242721 -0.098387495 0.2697598 -0.17791541 -0.13599554 0.24774823 -0.25123903 -0.5024299 -0.29758495 0.32927072 0.0911214 -0.38190842 0.009247469 0.26997125 -0.29687425 -0.48927954 0.08230883 -0.5398296 -0.6396513 0.4575263 0.066369504 -0.49344277 -0.1890578 -0.24008515 0.052956544 -0.29241046 -0.10811046 0.54926825 -0.39667174 0.1523266 0.3565574 0.13338585 0.22470918 -0.014779154 -0.77805597 0.13313845 0.19262716 -0.42156687 0.50951344 -0.17820895 0.5482647 -0.28940022 -0.36929724 0.2007029 -0.21014948 -0.7950574 -0.14054163 0.074750796 0.14495562 0.24447459 0.114350036 -0.48541722 -0.540381 -0.19288285 0.54028046 -0.32829005 -0.108757444 -0.6432232 -0.20382853 0.63488585 -0.23294955 0.18602365 -0.12316134 0.23331818 0.32989547 -0.831517 -0.238125 0.35001764 0.17819923 -0.4161517 -0.3702173 0.032041617 -0.2574633 -0.33244568 -0.12027097 -0.008107306 -0.0896336 0.15508437 -0.064092435 0.3800422 0.3028974 -0.30637437 -0.10581849 -0.06521013 -0.07701014 -0.4375236 -0.40345022 -0.35659677 0.012858439 -0.7246668 -0.007565071 -0.52221286 -0.5530262 0.3204472 -0.8603862 0.36729565 -0.034506205 -0.48176664 0.25340584 0.26129165 -0.19728038 0.1138644 0.04934849 -0.9875357 0.13464357 -0.038852915 0.23823512 -0.8853328 0.4673831 -0.26894546 -0.12139116 0.12971683 0.39678285 -0.503256 0.39338747 -0.20624757 0.29062197 -0.21569063 -0.5820528 -0.069708765 0.08750958 0.22654983
12837 -0.0049825218 0.35670593 0.3604908 -0.07240964 0.3162276 0.5034767 -1.0249876 0.2567027 -0.2656546 0.6277137 -0.15546158 0.3277249 -0.1743067 -0.6403289 -0.71105945 -0.13739635 0.15411656 -0.07041827 0.10136457 0.22266428 -0.34042734 -0.8340565 0.36723948 -0.9461803 -0.4239877 0.25246078 0.10802869 -0.45552015 -0.18611214 -0.12363526 -0.34042212 -0.10604813 0.23451212 -0.5584838 -0.010478604 -0.09486108 0.44322863 0.3245248 -0.0728644 0.6375121 0.13713183 0.7140256 0.015299484 -0.5255205 0.56762075 -0.21811736 0.10762402 -0.8041055 -0.09761701 -0.039608125 0.414773 -0.47126058 -0.25936976 -0.10497361 0.17399777 1.0913315 -0.28516567 -0.44043797 -0.3288494 0.28797644 -0.16140081 0.123788856 0.035573315 -0.5105471 -0.27237442 0.4882294 -0.09065595 -0.28320107 0.4145137 -0.06512489 0.39463 -1.0378805 0.36157885 -0.023230992 0.08599492 0.14943527 -0.28434792 0.057128076 0.027014693 -0.50360847 -0.13865197 -0.072075516 -0.056092534 0.06222265 -0.26454258 0.7351685 0.4478379 0.4366239 -0.59945863 -0.323992 -0.23216414 0.29287016 -0.17831536 0.43162116 -0.83528745 -0.0036786718 0.13657963 -0.48940092 0.27076414 -0.25233158 -0.5124244 -0.014852561 0.45249012 0.5386677 -0.0785075 -0.14881471 0.80866313 -0.46040282 -0.13018315 -0.22398181 -0.1520085 -0.33927098 0.42171153 -0.38216 0.03588067 -0.38224334 0.5057404 -0.3511988 0.21187502 0.41605294 0.072852746 -0.60880107 0.4165877 -0.5384783 -0.067675084 0.28213498 -0.23191775 0.038752336
7822 -0.28467837 0.27552426 -0.35193297 -0.093366854 0.2025669 0.3351589 -0.51684713 -0.14164765 0.2749688 0.23810065 -0.09992364 0.20885873 0.57438725 -0.15128368 -0.36389017 0.2754159 -0.0634518 -0.40017825 0.36409643 0.092807494 -0.98258215 -0.7345021 -0.26262084 0.21127388 0.053990588 0.8143725 0.11855664 -0.44593808 0.08662285 0.099707276 -0.097807325 -0.3368404 -0.20995355 -0.05281059 -0.10130461 -0.330342 -0.22112119 -0.19653182 -0.01082378 -0.36767018 -0.39992863 0.34028992 -0.21469304 -0.1992854 0.338465 0.29024246 0.4493573 -0.19241859 -0.5266686 0.57035744 0.5362686 -0.42076054 -0.25551575 -0.2882368 -0.09218773 0.675465 0.2829146 -0.42926544 -0.3989986 0.009972133 0.10099506 0.33706596 -0.33720216 -0.34530228 -0.5232952 0.51520365 -0.36706802 -0.14912802 -0.45246643 -0.4493564 0.2441456 -0.22780499 0.20442304 0.5350362 0.27227595 0.9670346 0.33110785 0.6809501 -0.34772632 -0.8176679 -0.017375743 0.5339383 0.35653803 -0.18129334 -0.19409741 0.31216994 0.5255055 -0.66305 -0.7789979 -0.07720978 0.049616333 -0.104991525 -0.16211717 -0.14331788 -0.05694722 -0.31634307 -0.01982891 -0.5711775 0.11702684 -0.11991498 -0.16518006 -0.32745028 0.5110928 0.5397052 -0.27692226 -0.7144933 0.5252098 -0.20688987 -0.3134906 -0.5639935 0.21915275 0.15772024 -0.42842168 0.2189304 -0.35789454 -0.10459255 -0.08547251 -0.45604923 0.2955769 0.8232246 0.09052761 -0.36493224 0.5107314 0.30158246 -0.112059884 0.016295252 -0.7590956 -0.7312452
8351 -0.29753485 0.19166492 -0.34113923 -0.051971037 0.13673644 0.40180394 -0.6240716 0.073292635 0.096350655 0.29681495 -0.16333915 0.24163705 0.61402565 -0.060190767 -0.4577549 0.3243405 -0.25863844 -0.24823509 0.08656077 0.1299213 -0.9105956 -0.51951647 -0.11677457 0.28949943 0.07194313 0.6494182 0.051867895 -0.58797574 0.11433512 -0.070983276 -0.35603893 -0.2923905 -0.16587429 -0.119007215 -0.21791431 -0.17195755 -0.23069291 -0.15324694 -0.11073215 -0.26602447 -0.35301575 0.33273062 -0.30314353 -0.30275676 0.23445904 0.2043401 0.14784943 -0.3958554 -0.5255552 0.39436093 0.5392126 -0.25934288 -0.13635764 -0.24317792 -0.010465702 0.8889508 0.20637758 -0.2599921 -0.29988858 0.04756465 0.0044849627 0.33762014 -0.30367643 -0.24843918 -0.5173396 0.32161963 -0.2564536 -0.138987 -0.36833766 -0.3679126 0.43699053 -0.105694935 0.3038145 0.65033585 0.2249922 0.9971673 0.19581561 0.5687603 -0.2652359 -0.6554867 0.042499464 0.5184108 0.14986809 -0.36124578 -0.25779116 0.22967753 0.317575 -0.55384266 -0.6656885 -0.15268826 -0.05409893 -0.10526374 -0.03927525 -0.06585044 -0.13368292 -0.18994156 -0.21678759 -0.48778373 0.07529691 -0.17744523 -0.03852829 -0.30779675 0.5276491 0.5063219 -0.3764112 -0.67451864 0.5752811 -0.10040714 -0.24766785 -0.34651363 0.10025591 0.0694139 -0.42614293 0.23288058 -0.3545727 -0.18126148 -0.29301143 -0.39753762 0.42670402 0.97479564 0.034931604 -0.32262918 0.29978493 0.30634603 0.12836775 -0.10096388 -0.8980484 -0.754075
2323 -0.18994601 0.21111415 -0.3605403 0.17156914 0.32461616 0.43352404 -0.18861839 -0.04641082 0.19061002 0.26353464 -0.13643783 -0.21229142 0.058489252 -0.32402852 -0.42037243 -0.33203876 -0.021500275 -0.44362932 -0.469767 0.14168489 -0.5916814 -0.78504723 -0.10389086 -0.74777937 -0.8303358 -0.32245398 -0.095255576 -0.73261046 -0.38169608 -0.20816606 0.08640461 -0.56167346 -0.5953871 0.030699877 -0.028052384 0.077044666 0.3850612 -0.052286036 0.17600286 -0.22726646 -0.8666921 0.1332947 0.30384982 -0.4465332 0.52633643 -0.19173211 0.09006019 -0.0808353 -0.4293139 0.5805342 -0.26540276 -0.5315739 0.24833561 0.3523469 -0.027059458 0.4620727 0.15741245 0.009986706 -0.81738544 -0.019514117 0.30539703 -0.017243087 0.015448805 -0.66713 -0.38604912 0.32863888 -0.8593492 -0.09991071 -0.057889745 0.2972619 0.31600899 -0.17706288 0.053609636 1.0731264 0.3166064 -0.1069304 -0.46501634 0.29539737 0.33998486 -0.20033991 -0.042182975 0.6596072 0.12717165 -0.27483645 -0.15521643 0.49009424 0.35747814 -0.22435392 -0.547956 -0.33855522 0.23103574 -0.25918484 -0.62942314 0.50704485 -0.107171044 -0.16271327 -0.0642899 -0.1711686 -0.2539529 0.09334877 -0.67286533 -0.15414554 -0.10590162 -0.07190516 -0.31599593 -0.14669895 0.21289407 -0.3141443 -0.35817137 -0.8318302 -0.040095452 -0.40509292 0.6697223 -0.36150682 0.25838956 -0.6003513 0.8860773 0.08097212 0.26098898 -0.45317712 0.1843849 -0.35586312 0.06963074 -0.16710402 -0.38855594 -0.070310384 -0.71576476 0.05313218
15713 -0.27319786 0.16701007 -0.2603225 -0.10039512 0.2533076 0.34379995 -0.20865455 -0.05536055 0.059220027 0.26316866 -0.11426977 -0.2948514 0.0835196 -0.41512913 -0.51697963 -0.49628383 -0.097649075 -0.51186824 -0.4903672 0.21282123 -0.55004644 -0.8182336 -0.09315976 -0.5356525 -0.9409963 -0.41966438 -0.15679716 -0.979333 -0.37608725 -0.15037638 0.13510258 -0.5183461 -0.45363417 -0.16126165 -0.06536008 -0.1092033 0.12972628 -0.09118515 0.15238985 -0.17252143 -0.81205755 0.31856298 0.3079512 -0.48877728 0.7404761 -0.16248243 -0.016169697 -0.26767123 -0.25269857 0.6347582 -0.110387504 -0.5075833 0.0460002 0.3517341 0.05334294 0.66679835 0.011409752 -0.045766607 -0.64254254 -0.029245663 0.42325115 0.11500423 -0.040100556 -0.6537247 -0.33687192 0.32939866 -0.8790259 -0.20551828 0.106065 0.38761932 0.42704332 -0.23220919 0.14075282 1.045473 0.28989476 -0.12500471 -0.39280137 0.32407466 0.50745237 -0.03523406 0.012748065 0.75894946 0.12726076 -0.38910055 -0.120170906 0.35185397 0.3932934 -0.18325733 -0.7115635 -0.41855887 0.096879885 -0.19192289 -0.5758131 0.5597506 0.05363067 -0.11754821 0.046852283 -0.17861213 -0.19374911 0.23851751 -0.64572215 -0.09970384 -0.124703616 -0.13455476 -0.3638424 -0.0016359258 0.13417554 -0.39624935 -0.5987408 -0.7067245 0.06619737 -0.32252476 0.53734845 -0.2711949 0.26331788 -0.6905714 0.98915607 0.05131604 0.24836065 -0.31328243 0.17180721 -0.43931264 -0.08294781 -0.22283807 -0.5121056 -0.15923981 -0.6891986 -0.014126373
2112 -0.34206796 -0.26955304 -0.18567711 0.15183896 0.15582623 0.21168904 0.004845035 0.41092595 0.067064166 0.25401065 -0.44560125 -0.1751284 0.21281515 -0.6836248 0.0028173497 -0.3423285 0.7480511 -0.6914004 -0.21260782 0.033968657 -0.30960312 -0.18431218 -0.46016744 0.30422798 -0.7440838 0.30570894 0.23740627 -0.37046334 0.14650069 -0.16300885 -0.7208362 0.59051627 0.03357582 0.042252015 -0.64724725 -0.53460664 -0.019914772 -0.35675678 -0.10768714 0.25982666 -0.5109583 0.64074 -0.06759011 -0.19244964 0.44389573 -0.8825606 -0.3081487 -0.27872294 -0.4844306 0.32218415 0.11403484 -1.449254 0.2173429 0.36157352 -0.26098406 0.16749355 -0.2744192 -0.41688338 -0.038809974 0.1045569 0.11336155 0.4685483 0.20917238 -0.5321314 -0.4146608 0.15633555 -0.5120578 -0.10098513 -0.031607334 0.308173 0.28662705 -0.2508403 -0.52534634 0.41216117 -0.1174577 0.35425526 -0.46130863 0.2488512 -0.28256944 -0.62539935 -0.40636456 -0.1348676 -0.33579743 -0.17946854 0.14785594 0.37556437 0.14080104 0.09056169 -0.09576828 0.36021894 -0.16713627 -0.29144657 -0.37491444 0.68875957 -0.92069036 -0.6378834 0.33219105 -0.2776534 0.008324956 -0.15508099 0.3758798 -0.70755607 -0.13487898 -0.16602099 -0.37434554 -0.100105986 0.07504149 -0.37143597 0.28840068 -0.289508 0.43145573 -0.6297557 0.29859793 0.06547676 -0.61323106 -0.31966928 -0.25615856 -0.37266746 0.2256632 0.34859982 0.13431044 -0.81181675 -0.086161256 0.1283698 -0.14892036 -0.30184466 -0.6822413 0.08548607
3319 0.3692554 -0.18248272 0.2555829 -0.24872148 0.7696919 0.6882744 -0.032064505 0.036961198 -0.14064088 0.3954327 -0.3051954 -0.20929867 -0.24318232 -0.47820717 -0.24689244 -0.16977844 0.14165424 -0.8379667 -0.6014388 0.062931605 -0.182907 -0.15294904 -0.39475387 -0.10460625 -0.3417059 0.12744384 -0.10200757 -0.29992044 -0.117518865 -0.03640613 -0.055175062 0.23615617 0.07040978 0.4573181 -0.40018278 -0.14403482 0.2785437 0.25009272 -0.041347194 0.50814193 -0.32998183 0.16418922 0.21921998 -0.2625657 -0.27177304 -0.47567192 0.61605215 -0.4158961 -0.6427842 0.35601044 0.36345214 -1.0828534 -0.10519818 0.32376376 0.50145614 0.40754747 -0.024639916 -1.4728441 -0.050731912 0.39375466 0.33540896 -0.4145342 0.16974066 -0.11172331 -0.38351905 -0.12295457 -0.3519991 0.31678832 -0.693717 0.30086207 0.5495768 -0.27325496 -0.19408621 0.6221418 0.050123915 0.34941003 0.1349452 -0.4188648 -0.48960298 -0.32530385 -0.3461348 0.25999853 -0.10737805 -0.19318523 -0.46971467 0.21903859 0.10989624 -0.2321797 0.08088155 -0.14776024 -0.4908604 -0.20599133 0.12472441 0.00043073625 -0.16705532 -0.013671164 -0.36407888 -0.39237157 -0.8680392 0.24915989 -0.12149536 -0.18368232 0.17824031 -0.0016929051 -0.2477962 -0.7549309 0.21123551 -0.53209645 0.09705537 -0.19516101 0.16556185 0.1779277 0.3853381 0.10475451 -0.15267475 -0.15901196 -0.028348552 -0.09459806 0.5726469 0.2831125 0.2633484 -0.6150126 -0.09612506 0.14348374 -0.43764645 0.116281964 -0.8742159 0.009761775
21907 -0.27125934 0.22680014 -0.28313473 -0.05861643 0.18260954 0.44341424 -0.715437 0.12491401 0.0705511 0.3512238 -0.15958524 0.28763154 0.653605 -0.12810315 -0.5226172 0.34598505 -0.23666942 -0.22807115 0.08059675 0.084630676 -0.8867708 -0.43232247 -0.11496783 0.17347558 0.09741107 0.5957898 0.016468426 -0.5662558 0.1337458 -0.13567999 -0.37228397 -0.26152495 -0.08150693 -0.12350169 -0.20959626 -0.09917876 -0.12324698 -0.14359614 -0.062392507 -0.24660666 -0.30167043 0.3128996 -0.2787227 -0.3520313 0.1549462 0.28544503 0.116081245 -0.48862085 -0.5761738 0.29751757 0.6044434 -0.28254893 -0.14641356 -0.26284203 -0.032116137 0.95105195 0.14124402 -0.16749635 -0.3403261 0.13200687 -0.031883422 0.36408028 -0.33424193 -0.28338555 -0.51043916 0.36487785 -0.2653182 -0.103303134 -0.3489634 -0.3420479 0.5065798 -0.15908873 0.3306581 0.6124772 0.26918912 1.0665002 0.1512815 0.55565065 -0.19430798 -0.633139 0.006720472 0.45730814 0.15611877 -0.3416992 -0.22590055 0.2677906 0.2702946 -0.48870316 -0.7424674 -0.26905373 -0.09651672 -0.03780038 -0.050755955 -0.045304295 -0.12424707 -0.11105777 -0.12025756 -0.57242036 0.1510896 -0.14483991 -0.012793939 -0.26643884 0.5972622 0.5211511 -0.4457422 -0.763805 0.6185261 -0.07299194 -0.2559244 -0.3039128 0.03928081 0.07902864 -0.33967912 0.20951384 -0.3845536 -0.21395747 -0.26593116 -0.2868297 0.44485655 0.92917424 0.016116396 -0.30877337 0.31944117 0.26360658 0.14130543 -0.021877622 -0.971066 -0.7358285
1689 -0.39088076 0.19607884 -0.13154358 -0.105156474 0.31876954 0.35978448 -0.28128353 -0.042223077 -0.3196411 0.5257526 0.02590191 0.24031942 0.3262414 -0.6592075 -0.31328773 -0.04570741 0.17709853 -0.45552853 -0.17985487 0.057423346 -0.44804215 -0.4956202 -0.41074592 -0.15081389 -0.3273585 0.33658054 0.33409548 -0.6656181 0.03384653 -0.27845514 -0.22977519 -0.18713722 0.11133304 -0.20341754 -0.3749641 -0.07772138 0.05006964 -0.39428395 -0.3855752 0.019755779 -0.3136518 0.58414847 -0.061029132 -0.47196957 0.4688531 -0.065335706 -0.2041405 -0.5319185 -0.47367904 0.3777754 0.41509718 -0.86556786 0.3480784 0.14182685 -0.00604949 0.8786421 -0.10056247 -0.47204298 -0.29222944 0.17583676 0.11370258 0.51435083 -0.23236196 -0.43194973 -0.45563534 0.21876334 -0.5120665 0.22989646 -0.0605609 -0.20461062 0.49975634 -0.61115474 0.042586494 0.5154665 -0.05011125 0.4158585 -0.14599463 0.44173482 -0.2915346 -0.81571716 -0.43211198 0.40784544 -0.34826764 0.14277314 -0.14204068 0.47731772 0.2962701 -0.3780058 -0.21578382 -0.07302445 -0.19384691 0.14506385 -0.03960296 0.30583966 -0.71704894 -0.2956602 0.10434862 -0.62125796 -0.16116667 -0.008785166 -0.16803774 -0.43933237 0.2499045 0.15952986 -0.34903964 -0.49054962 0.42344117 -0.31118718 0.043728106 -0.36801192 0.38700765 -0.18443769 -0.032574706 -0.13211867 -0.28922123 -0.38654268 0.11381542 -0.3040848 0.42470816 0.48923847 -0.010753484 -0.7449995 0.10742307 -0.13042733 -0.45061496 -0.10085863 -1.1862048 -0.23372218
12783 -0.21467489 0.26452768 -0.41695675 -0.10648001 0.12952664 0.4812414 -0.64257693 0.13749799 0.026020331 0.30888626 -0.17543247 0.2492654 0.7009792 -0.057560615 -0.49320966 0.31026953 -0.24469033 -0.21863672 0.05429594 0.05532493 -0.841963 -0.6109211 -0.108177386 0.25131148 0.15144378 0.5031003 0.06507371 -0.5283769 0.1736665 -0.21041223 -0.35503867 -0.20682149 -0.22555348 -0.09256565 -0.11361596 -0.059356093 -0.24971989 -0.220072 -0.19070424 -0.22476023 -0.24034959 0.42268276 -0.33430657 -0.34468758 0.15208608 0.26015916 0.15223892 -0.47540778 -0.55256015 0.36748838 0.59654266 -0.34420356 -0.120882735 -0.28643912 0.015065124 1.0223724 0.096368685 -0.15931287 -0.32508904 0.06679328 -0.020041594 0.42414525 -0.32471275 -0.24467936 -0.5621953 0.25769347 -0.40887746 -0.15581812 -0.37427816 -0.46148545 0.3918309 -0.19404684 0.34272164 0.6430673 0.2665403 1.0222145 0.22739016 0.53618956 -0.25121024 -0.665946 0.06464963 0.5253947 0.17441475 -0.3947464 -0.30553275 0.23806617 0.22182125 -0.50438756 -0.69985867 -0.2607349 -0.14273973 -0.1027196 0.012859308 0.041663546 -0.10063436 -0.08062532 -0.09326959 -0.56185544 0.012105902 -0.11816311 -0.049010742 -0.27641466 0.61021686 0.43665776 -0.43588707 -0.75889784 0.56493294 -0.14427584 -0.27905717 -0.34054765 0.058667656 -0.011685939 -0.2955616 0.22328915 -0.35961574 -0.14212425 -0.19405861 -0.38659033 0.4322812 0.96761805 0.05041362 -0.3760856 0.24991536 0.31803203 0.061722107 0.12575662 -0.94925356 -0.7493738
12288 -0.51468885 0.3266474 0.20077717 -0.40155435 0.36283466 0.33756232 0.017468084 0.3005875 -0.24620998 1.1464224 -0.15333268 0.19672488 -0.29728606 -0.25262716 0.048852235 -0.31061205 0.3786024 -0.37257805 -0.71661747 0.35112834 -0.27114937 -0.048238676 -0.46179605 -0.41448098 -0.33024284 0.35223398 0.4233261 -0.27554703 -0.020794567 -0.27885553 -0.25994283 -0.042064726 -0.66587955 -0.23928036 -0.62463075 -0.2539003 0.2921888 -0.3677018 0.45649752 0.5109418 -0.5900902 0.4440493 -0.29964557 -0.003641649 0.011587743 0.35273585 -0.24122572 0.007853218 -0.35254776 0.4676207 0.11013645 0.10565932 0.42678964 0.36355487 0.24915497 0.43945262 0.11550067 -0.42264196 0.00070146215 0.29542252 0.12748425 0.034178775 0.009988653 0.11903051 0.14718963 -0.25264663 -0.48157543 0.12625691 -0.009126548 -0.24403909 0.25289214 0.16039053 -0.025642104 0.3355728 0.21886638 -0.28750837 -0.6002775 0.41783214 -0.41338146 -0.36455446 -0.25585824 0.4843387 -0.34340072 0.06367983 0.25980455 0.7266208 0.34838253 -0.030253312 0.20761251 0.3390084 0.073525056 0.12302362 -0.47356254 0.50935364 -0.8053675 -0.2557165 -0.3306948 -0.47973973 -0.7192527 0.100096665 -0.39122903 -0.17725943 -0.034237668 0.18659817 -0.24882463 0.25170967 0.4210612 -0.47221035 0.15020064 -0.2685654 0.2587779 -0.015718363 -0.40347195 -0.39733434 -0.090028696 -0.05205407 0.019127617 -0.09630362 0.33774298 0.28077146 0.47491324 -0.4775775 0.1775645 0.35354823 -0.82180727 -0.91225064 -0.5935728 -0.1373043
16001 -0.3908447 0.18436126 -0.17473742 -0.11017339 0.04437732 0.30268905 -0.6907694 0.010480278 0.09358509 0.33698222 -0.031517018 0.31643492 0.54584867 -0.30848736 -0.41780466 0.19688912 -0.072560936 -0.37328807 0.17153427 0.22617373 -0.9695042 -0.2775707 -0.17144282 0.2717609 0.01604063 0.55062735 0.10516398 -0.52396923 0.05357421 0.064968474 -0.24438815 -0.3284331 0.18154316 -0.15645085 -0.27020666 -0.36098933 -0.10212319 -0.12159196 -0.052371208 -0.31353852 -0.44807068 0.21067509 -0.216322 -0.20705253 0.2717639 0.23909886 0.0012233016 -0.42038056 -0.48680526 0.48266035 0.54187435 -0.44992572 -0.027173843 -0.12806508 -0.10307109 0.8436918 -0.0053606974 -0.25956106 -0.2985162 0.2396816 0.048498683 0.35301661 -0.38829482 -0.35793102 -0.5497169 0.48397812 -0.2241449 -0.18576166 -0.2207314 -0.22258572 0.5592418 -0.30099222 0.32739657 0.5662517 0.24622734 1.1235515 0.11563028 0.55527127 -0.25162882 -0.58909786 -0.12038113 0.34354672 0.1284417 -0.22285967 -0.17594905 0.13821657 0.39143956 -0.42542815 -0.7885812 -0.22707151 -0.09861926 -0.056901522 -0.15039495 0.045898214 -0.06547666 -0.17384766 -0.056490347 -0.5050089 0.29126728 -0.22811136 0.23414934 -0.42222962 0.42578855 0.59554017 -0.5259647 -0.79502505 0.53191787 -0.2068651 -0.17461482 -0.41039768 0.19446237 0.07922573 -0.32675248 0.3189507 -0.60321903 -0.3098627 -0.31774554 -0.29139063 0.27366015 0.93164915 -0.082130164 -0.37996638 0.28134182 0.17849302 0.049724888 -0.07176942 -1.0187138 -0.7735538
3499 -0.19127396 -0.04422113 -0.107964694 0.020931417 0.37281352 -0.08798312 0.3350802 0.44192767 -0.087159455 -0.29689947 -0.36292958 0.2968785 0.5322697 -0.7834778 0.32666078 0.024253787 0.20751946 -0.5861075 -0.5370888 -0.01416124 0.121068224 -0.0863127 -0.4833826 0.21642023 -0.3289203 0.47691435 0.5251392 -0.6347863 0.1946854 -0.5227965 0.17436805 -0.26583713 0.056166433 0.58743596 -0.47335106 0.41056854 -0.20369315 -0.2819084 -0.38262945 0.050385147 -0.40350527 -0.16435531 -0.27179885 -0.3724034 0.18277983 -0.012537351 0.048944794 -0.43695205 0.07037215 0.47192296 -0.19653563 -0.45577952 0.6329061 0.04658136 0.28030232 0.55359674 0.3852145 -0.3709227 0.09256676 -0.37493953 0.4298208 0.39271218 -0.06774913 0.020436859 -0.49259558 -0.120228894 -0.09635607 0.05643798 -0.11316511 0.51309264 -0.10362865 -0.41264656 0.07487837 0.91907424 0.21818948 -0.01642098 0.45411578 0.47776583 -0.51329994 -0.41851652 0.08610735 -0.31409448 -0.48118702 0.116404764 0.56690377 0.34635708 -0.45595738 -0.46089575 0.4259199 0.14537069 -0.5674483 -0.3871698 -0.17480427 -0.34817573 -0.86986405 0.023540368 -0.4222674 0.2944104 -0.37063482 0.5645059 -0.606126 -0.39976466 0.15413196 -0.109936655 -0.3256683 -0.09464752 -0.30573094 0.28035685 -0.18488972 -0.25278968 0.30042928 0.1922254 -0.26202887 -0.83462375 -0.013148028 -0.3687634 -0.5334807 -0.37166288 0.26528007 -0.3749183 -0.26055014 -0.3979304 -0.089874126 -0.464263 -0.6612503 -0.691746 -0.41447303 -0.0738923
15976 0.059236094 -0.068488695 -0.02541577 0.3232033 0.39633527 0.16829507 0.12748972 -0.40401027 -0.25327986 0.2408693 -0.5017092 0.21888375 -0.038810555 -0.47421974 -0.40221062 0.15853769 0.0034017626 -0.44989485 0.10540475 0.38657922 -0.10241872 -0.26756883 -0.1636854 -0.35557508 -0.20507677 0.27043957 0.038900476 0.16743225 -0.57853824 -0.038452942 -0.06197576 -0.2833661 -0.07277272 -0.13824068 -0.20105624 -0.9171312 -0.3135975 0.24722785 -0.36413032 0.21645418 -1.005306 0.33327633 -0.11879569 -0.46401075 0.5206328 -0.067670725 0.41697973 -0.37075138 -0.570973 0.74159664 -0.15320481 -0.17848243 0.580705 -0.004110286 -0.09371686 0.26450378 0.45446092 -0.5056906 -0.33764875 -0.31883538 0.7298924 -0.09029 0.27680677 -0.11629519 -0.61858076 0.32271606 -0.24784075 0.27434132 0.16842766 -0.037218522 0.2232263 -0.10729102 -0.08055646 1.028094 -0.60574 0.46438926 -0.3463388 0.5267193 0.048693746 -0.31441653 0.25605083 0.23961222 -0.5853763 0.17062794 -0.1851738 -0.07161964 0.5230778 -0.5047248 0.12745674 -0.086277366 0.05693478 -0.11059102 -0.4934281 0.18880023 -0.62297815 -0.12627998 0.08754405 -0.82323194 -0.6489858 -0.6078102 -0.15551737 0.16550684 -0.013154968 0.027120128 -0.2587116 -0.2571809 0.1642438 -0.6879574 0.3222388 -0.27074036 0.35318077 -0.62549704 -0.27792007 -0.43381426 0.44701815 -0.5339783 0.17289045 -0.3144185 0.37863714 0.10400428 -0.03908462 -0.4385177 0.222628 -0.2821625 -0.29782578 -0.20685697 -0.5267761 -0.11053954
897 0.24397229 0.22737515 0.4613698 -0.26581964 0.4682833 -0.16077642 -0.4230526 -0.29383928 -0.19502254 0.7862229 0.08355005 0.12683986 -0.12783127 -0.2477058 -0.3472752 0.35920012 0.3103673 -0.027555218 -0.08181836 -0.30411133 0.42389253 -0.1123715 0.061882 -0.486315 -0.2930935 0.38736993 -0.17634612 -0.8441575 -0.0017965261 -0.49598327 -0.121200606 -0.2371283 -0.14078125 0.7103466 -0.3503414 0.40224195 0.3672998 -0.57638925 -0.353675 0.07699267 -0.3825812 -0.18772678 0.24759632 -0.8265595 -0.42885736 0.3807547 -0.2899779 -0.48382518 -0.47249332 0.15590633 0.3477983 -0.3711349 0.45685798 -0.45765385 -0.08337668 1.0354921 -0.11152584 -0.41837117 -0.15936074 -0.28875476 0.6405408 0.2945649 -0.2586035 -0.2913293 -0.089205585 -0.085147366 0.18772003 0.45923176 0.21929125 0.111853585 0.19089402 -0.28300953 0.0035031892 0.23915157 -0.056553308 0.05039698 -0.40036836 0.20180865 -0.41040906 -0.22716963 -0.06611129 0.063973255 -0.2603085 0.41815662 0.34569895 -0.13276275 0.15082411 -0.4955456 -0.19683376 -0.43983456 -0.14339966 -0.60428166 -0.19284767 -0.13602826 -0.12041065 0.32711798 -0.045459777 -0.55689406 -0.5163817 0.522853 -0.2056168 0.32291147 0.47248933 -0.3685426 0.21034713 -0.6313941 0.4772401 0.4029318 0.0568656 -0.32016036 -0.03852739 0.1971387 -0.21227604 -0.5790174 0.13952532 0.11295906 -0.5274455 0.40281487 0.66891235 -0.267483 0.16848171 -0.3495314 0.014968002 -0.2720296 -0.28739044 0.2419752 -0.84687334 0.25167236
9677 -0.30742043 -0.009305492 0.21887383 -0.24619871 0.24022332 -0.16407402 0.07293104 0.55955464 0.15198354 -0.055654727 -0.5439424 0.17383336 0.13909614 -0.35736835 0.4061956 0.22589086 0.8076914 -0.5748535 -0.2807831 0.039328415 -0.16538024 -0.03955514 -0.56182235 -0.35330102 -0.59984773 0.46516156 0.30425757 -0.5029397 0.06853836 -0.11114737 -0.45448834 -0.1812444 0.103563726 0.72865653 -0.449517 -0.029109873 -0.1934623 -0.2955687 -0.25223944 -0.10360618 -0.5107993 0.029705832 -0.20089726 -0.0687109 0.4294775 -0.3889081 0.23546042 -0.4221466 -0.3020378 0.1949954 -0.08649127 -1.0995563 0.470482 0.15134129 0.30764207 0.27471587 0.45569655 -0.22424997 -0.046125248 -0.38302717 0.19895291 0.16040792 -0.15014762 -0.56975174 -0.51245433 -0.023419477 -0.26696742 0.32338014 -0.091646895 0.10453553 0.06953608 -0.39105198 -0.3974325 0.59104997 0.0008338129 0.35766107 -0.22098531 0.3708332 -0.6946451 -0.6874401 -0.34192204 -0.6564573 -0.1032658 0.66842914 0.33954632 0.026866192 0.07018465 -0.38669157 0.33703667 0.2666866 -0.569198 -0.32428366 -0.42969385 -0.0071622124 -0.95625585 -0.2904701 -0.04958279 0.10647892 -0.081641644 -0.010839125 -0.0133538 -0.8564686 -0.21963814 -0.32192105 -0.19024007 -0.23954743 -0.19079188 0.11639072 0.14976788 -0.13882849 0.41831985 0.28292984 -0.1692739 -0.2327624 -0.22757295 -0.06636862 -0.5081728 -0.26326755 0.59452784 0.268537 0.0034742048 -0.38086432 0.21301351 -0.11410997 -0.49271405 -0.6805488 -0.43929058 0.24642691
3252 -0.17282978 -0.0036886053 -0.11428485 0.6805805 0.694048 0.34380454 0.031777814 -0.39246094 -0.6430271 0.32120928 0.13638118 0.18771888 0.018595917 -0.9525943 0.21711715 -0.14744948 -0.012850505 -0.20421793 0.41801023 -0.072008915 -0.025252052 -0.2567112 -0.43405685 -0.23568082 0.08648018 0.626342 0.5477336 -0.36626953 -0.14385815 -0.35912073 0.33993798 0.06257557 0.07542559 0.42077196 -0.7156706 0.20343643 0.24403153 -0.35584813 -0.89956176 0.36528635 -0.3704697 0.55957985 -0.15257065 -0.45179453 0.4165725 -0.31748936 -0.46648374 -0.32960206 -0.13037358 0.46376178 0.47710434 -0.75007296 0.21200162 -0.24470831 -0.18074025 0.36612508 -0.28758487 -0.6024721 -0.15907563 0.11806823 0.07940267 0.57480156 0.22639048 -0.27268496 -0.28749472 0.23370098 0.19858356 0.13427274 0.21403047 -0.4920842 0.15551767 -1.0240142 0.02501626 -0.20246384 -0.5313596 0.15841146 0.23163144 -0.09862529 0.2814777 -0.6030121 -0.32136875 0.37762365 -0.5477428 0.5944966 -0.08340379 0.0033126553 0.6425551 -0.36523458 0.5097166 -0.15220477 -0.38820657 -0.30602923 0.28447816 0.11144119 -0.8955349 0.11472353 -0.13080174 -0.6169629 0.1623336 0.11238268 -0.43029097 -0.17089415 0.03200911 0.16446742 0.35392797 0.38895264 0.047758523 0.0054667974 0.45278326 -0.37404463 0.2327429 -0.14618643 -0.3601957 -0.5402395 -0.104514904 0.035273027 -0.4559752 -0.4915655 0.4384369 0.070577 -0.011741957 -0.65834683 0.0070259445 -0.077987015 -0.19474016 -0.18783027 -0.5257323 -0.18399265
9523 -0.0037834484 0.0922945 -0.24436507 -0.34485918 0.3813616 0.3197505 -0.131298 -0.23378536 0.0816291 -0.096729495 -0.2713124 0.19671112 0.132115 -0.23287006 0.014311989 0.12603167 0.37141883 -0.39202827 0.1470177 -0.007846426 -0.21651444 -0.76013064 -0.24633585 0.13801873 0.060229216 0.7076991 0.4679199 -0.57735234 0.031394724 -0.10399577 0.12486311 -0.09129239 0.046901878 0.15713845 -0.08068144 -0.16041145 -0.25416365 -0.47511265 -0.23292421 -0.43282306 -0.012879391 0.54839677 0.28718838 -0.22894269 0.39996576 0.40127003 0.71585286 -0.012911335 -0.29987437 0.5535164 0.3645316 -0.7676881 -0.20405649 -0.321881 -0.16963334 0.5392981 -0.04077315 -0.7104336 -0.107424445 -0.4568073 0.39078656 0.044891175 -0.3398532 -0.35178164 -0.6192561 0.62529236 -0.2038475 -0.22533284 -0.2706246 -0.63728553 -0.27496058 -0.9099466 0.078901395 0.48792472 0.11935956 0.16340083 0.2174301 0.22825164 -0.10125407 -0.65361536 0.06243056 0.095969625 0.1592587 -0.16054918 -0.0951278 0.5561083 0.4105891 -0.1871641 -0.4638088 -0.048036806 0.05982803 -0.3746089 -0.06580469 -0.1538071 -0.24088895 -0.017648779 0.39874354 -0.540577 -0.2960169 0.4829047 -0.5876529 0.041608993 0.77835023 -0.22038417 0.03463335 -0.29253986 0.035628732 0.0780424 -0.47531572 -0.5652153 0.36586347 -0.02789503 -0.10544144 -0.65285087 0.17704931 0.116849415 0.44304356 -0.42119318 0.03473548 0.13390797 0.1046909 -0.45574826 0.09193423 -0.25663492 -0.9897222 0.58100325 0.23173974 -0.29897207
4111 -0.075407825 0.0076664444 -0.03551138 -0.6597753 0.57562304 -0.23312865 -0.1830678 0.50744325 0.00491225 0.48869798 0.6851405 0.46837455 -0.35841396 -0.643077 0.015404612 0.51946414 -0.12697788 -0.23562233 0.20701246 -0.16019566 -0.2950866 -0.38505304 -0.3945367 -0.20990722 0.09491887 -0.09754246 0.60250354 -0.37318942 -0.03389686 -0.5411737 -0.06781474 -0.2953352 0.07405198 -0.46072516 -0.3647345 -0.21549533 -0.26273215 -0.06501252 -0.81112856 0.3565543 0.06726692 0.66943264 -0.075455055 -0.20711017 0.55013007 0.25232357 0.16944979 -0.32544544 -0.24245037 1.2387598 -0.4672049 -0.534804 0.51686597 0.33138347 0.094952084 0.69541985 -0.14575906 -0.31862453 -0.1277125 0.28700697 0.24794027 0.28304908 -0.18073614 -0.1362138 -0.6153763 0.41999248 -0.0054639527 0.4553665 -0.32878137 0.10748729 0.2502978 -0.087598465 -0.061239477 0.4211992 -0.29790968 0.11557829 -0.9133356 -0.18679696 -0.35536504 -0.31284973 0.10841883 0.14376093 -0.7160373 -0.06352826 -0.31619263 0.14525661 0.19626802 -0.18751298 -0.1764979 0.28126314 -0.22546591 0.10108066 0.086569734 0.21712162 -0.28684738 0.18979786 0.66625094 0.16469596 0.108226545 -0.13911304 -0.1787516 0.06683289 0.3332754 -0.36601916 -0.16435222 -0.7099298 0.10154101 -0.35668173 0.029833889 -0.58058786 0.19530796 -0.19257991 -0.00707601 -0.2645223 0.39917397 -0.45296058 -0.09747858 -0.26379022 0.48540372 0.39045238 -0.26354197 -0.0041806577 0.08650846 -0.4546445 -0.040011715 -0.10398986 -0.6359932 -0.19420469
8216 -0.31179515 0.05010888 0.21787268 -0.6186834 0.15184142 -0.4333926 0.03658189 0.47690785 -0.057033204 0.6841612 -0.5902034 0.055780936 0.11651911 -0.20480566 0.33968174 0.20986624 0.7885309 -0.37171838 -0.4966596 0.06861692 -0.120305486 -0.08143856 -0.39019537 0.050726876 -0.6049501 0.47894564 0.022834694 -0.5575588 -0.16589409 -0.3279359 -0.36608428 -0.3375061 -0.042783223 0.25398105 -0.33945748 -0.07451901 0.044171106 -0.708964 -0.25178325 0.03489967 -0.10133507 -0.12075108 -0.30588585 -0.4198374 -0.08689303 -0.20831257 0.012168787 -0.16238746 -0.47061616 0.26290756 -0.0058862525 -0.8019565 0.5433636 -0.18673688 0.5608383 0.23009442 0.45288816 -0.4269171 0.42334992 -0.38007683 0.22420616 0.4170126 -0.3348073 -0.114333846 -0.3891569 -0.36436138 -0.337864 0.40056306 -0.07325366 -0.40875572 0.31276643 -0.010066881 0.025185984 0.5592682 0.017961022 0.2409086 -0.2622375 0.4805648 -0.7204848 -0.68710476 -0.27864355 -0.4401341 -0.2753182 0.5989619 0.081628434 0.32555145 0.079088815 -0.4114165 0.37326196 0.33944342 -0.7822852 0.058907732 -0.10968381 -0.08375136 -0.8033277 0.02246548 -0.27365664 -0.093323074 -0.062588125 -0.099153325 0.028661216 -0.6203789 -0.23651697 -0.221205 -0.33259717 -0.5180253 -0.106621355 0.34243068 -0.0018121217 0.15680695 0.28672174 0.33039704 -0.5241798 -0.11139717 -0.14018041 0.11474234 -0.36223686 0.024092387 0.6921911 0.18853639 -0.11939164 -0.6239763 0.026467327 -0.22625718 -0.74544895 -0.5541866 -0.6004336 0.051939223
16368 0.20240207 -0.17053524 0.4123775 -0.58504814 0.72334754 0.42965433 0.08363997 0.111609794 -0.19892539 0.7216845 -0.5106383 0.24464166 -0.66840535 -0.31436858 0.025442895 -0.13275266 0.19085129 -0.34768376 -0.18045896 0.409891 -0.034266487 -0.43988013 -1.0102357 0.43069834 -0.16374648 0.50450355 -0.29130337 -0.18503416 0.45376945 -0.3469074 -0.16461802 -0.034671117 0.14550377 0.29415128 -0.4802753 0.1622059 0.2489106 0.10407037 -0.35023633 0.3123772 -0.764343 0.093167536 0.1788849 -0.45212418 0.3332539 -0.16827017 0.7186108 -0.33349636 -0.75242084 0.20870066 0.17470953 -0.9576384 -0.1907186 0.12372159 0.5484295 1.0379133 -0.059107956 -0.553989 -0.077058345 0.59754175 0.020711608 -0.35633442 0.0279129 -0.12966028 -0.15092488 0.0952309 -0.13808334 -0.032185283 -0.51512885 0.4358399 0.67287135 -0.18403423 -0.38192922 0.52958083 0.31073108 0.48148766 -0.06720285 -0.2982736 -0.07471481 -0.62592256 -0.24353084 0.09134951 -0.22215743 -0.29096118 -0.36471933 0.2184555 0.12017464 -0.07446777 0.060698677 0.18508442 -0.29327592 -0.09171872 0.6361393 0.09996133 0.06113274 0.3191857 -0.5750004 -0.9407148 -0.5021838 0.576203 -0.18379198 0.41448644 -0.21605968 -0.42037016 -0.18683341 -0.24910197 -0.22012663 -0.7379611 -0.116437644 -0.06551579 0.2792553 0.08232392 0.051761385 -0.54617465 -0.08981858 -0.303972 0.22158216 -0.09450714 0.2336453 0.4245272 0.3006969 -0.80561435 -0.2912549 0.24353074 -0.6320706 0.0058464482 -0.89180475 0.014154392
19041 -0.48155868 0.33073536 -0.14814116 -0.57303566 0.5039711 0.03900997 -0.08493996 -0.06737485 -0.20153625 0.6417267 0.24814853 0.19490086 0.036035582 -0.48007977 -0.5006267 -0.37788832 -0.060043953 -0.1376698 -0.2745554 -0.27514976 -0.10191402 -0.27061105 -0.14474656 -0.39058316 0.256065 0.3940788 -0.20962934 -0.07390587 0.016259085 -0.33698726 0.06276348 -0.30611914 -0.45933872 -0.99509263 0.21125782 -0.2628536 0.15325052 -0.6360505 0.08071455 0.10754704 -0.64027333 0.16696388 -0.27417642 -0.5207076 0.16802152 0.072192684 -0.22401829 -0.4910637 -0.8037775 0.17077671 -0.028452832 -0.057729874 0.21916819 0.23485012 0.6475846 0.8309223 -0.2103465 -0.18513796 0.027752113 0.5073207 0.15914576 -0.05552801 -0.31976593 0.19341443 -0.15028223 0.05341132 -0.16621295 -0.020022389 -0.21363036 -0.051947232 0.72630847 -0.35356775 0.64019704 0.5355284 0.2891342 -0.75478756 -0.50702363 0.6639452 -0.31521693 -0.0035565295 -0.004998276 0.5429646 -0.35647225 -0.11043603 -0.1491767 0.47006276 0.70156837 -0.28921562 -0.35963154 0.083290875 -0.36633855 0.19616705 -0.14270529 0.21078484 0.027401665 -0.70461863 -0.14929105 -0.018103026 -1.2507545 0.25553435 -0.40606704 -0.37524623 0.57289934 -0.062473305 -0.7821105 -0.5487013 -0.1456329 -0.040842775 -0.3854702 0.049476177 0.43503344 0.09635141 -0.16486111 -0.41139486 -0.32731995 -0.4334875 0.50232613 0.6398139 0.6948023 0.15309332 -0.2642637 -0.5630374 -0.15336503 -0.43532404 -0.5737842 -0.99998194 -0.93643224 -0.12385179
18974 -0.10777185 0.009955908 0.104690984 0.47527093 0.93340874 0.30527008 -0.31471804 -0.094728604 0.1587123 0.1164471 0.0013546841 0.14865038 -0.23177515 -0.54176295 -0.30142367 0.074003994 -0.07732453 -0.47198388 -0.2185775 0.029142866 -0.40066573 -0.50241786 0.085161835 -0.5778395 -0.68347424 0.14517045 0.07941249 -0.73814255 -0.44359362 -0.54211456 0.034628835 -0.55630076 -0.5136489 0.72014254 -0.31191602 0.17626378 0.41740793 -0.17432101 0.16612287 0.09222235 -0.9779466 -0.08882412 0.030798132 -0.4445116 0.36340576 -0.2145927 0.31885502 -0.050721552 -0.52903605 0.28230682 -0.34963444 -0.73111826 0.17851469 0.15546396 -0.01751707 0.52941304 0.064875655 -0.5217422 -0.7115834 -0.3335214 0.61047626 -0.2351257 0.019465612 -0.4502693 -0.2459319 0.33867988 -0.3485894 0.073560655 -0.06513094 0.28563604 0.3194323 -0.75134736 -0.15299161 0.6368431 -0.06492669 -0.32396474 -0.44859627 0.010382983 -0.040318616 -0.18247685 -0.11276758 0.09630171 0.11529993 0.09465107 0.010761437 0.4501805 0.3653758 -0.3860413 -0.165403 -0.253367 0.1435148 -0.6272626 -0.5265529 0.09140508 -0.12917703 -0.39120525 -0.16004734 -0.5421937 -0.52257395 0.4846388 -0.85267746 0.1715536 -0.24450332 -0.40201882 0.15323801 0.13375275 -0.042933334 -0.0036709127 0.13005766 -1.176621 -0.01224506 -0.052436616 0.49811032 -0.7061682 0.7281689 -0.23475397 0.09792986 0.10977834 0.3720898 -0.6359456 0.26831925 -0.36808825 0.24860984 -0.02580923 -0.5695349 -0.15759549 -0.13270105 0.1789324
5149 0.43474415 -0.22985807 0.37173995 -0.39980826 0.81810427 0.66454446 -0.027264137 0.049839735 -0.17978577 0.4501238 -0.42087618 -0.14220072 -0.39086944 -0.35050818 -0.20497413 -0.12143735 0.13141301 -0.78376865 -0.5688012 0.18315758 -0.04484449 -0.16719525 -0.4683118 -0.07237675 -0.28852135 0.24663608 -0.094433546 -0.338223 -0.019884365 -0.22542198 -0.033204917 0.16124617 0.11173122 0.44939405 -0.38136885 -0.020376353 0.17133231 0.15720887 -0.064889506 0.46015722 -0.43030173 0.087228164 0.0960121 -0.3124208 -0.14557496 -0.38689217 0.61995345 -0.34944785 -0.64310586 0.22036764 0.34462675 -1.0396199 -0.21851541 0.26494107 0.5248361 0.57984704 -0.03789643 -1.38831 -0.057581082 0.5078555 0.31546998 -0.41077587 0.19850151 -0.07520974 -0.27734077 -0.18254218 -0.3333772 0.24362516 -0.5739211 0.42137408 0.530091 -0.26803282 -0.17308457 0.5192037 0.15450627 0.3108576 0.10367409 -0.3664263 -0.40701514 -0.36721864 -0.32323927 0.21699937 -0.057788946 -0.21908166 -0.42981553 0.19676957 0.036667354 -0.20300828 0.09407929 -0.15373291 -0.5169838 -0.15172131 0.211106 0.00951617 -0.08926854 0.08289135 -0.57887745 -0.4275286 -0.8698906 0.2956326 -0.14486684 0.010962371 0.075996675 -0.048029475 -0.06851596 -0.6719425 0.134039 -0.46519864 0.11850668 -0.21579435 0.09875771 0.1320735 0.24600586 -0.10838347 -0.1336696 -0.122058235 0.03671235 -0.13483353 0.46053246 0.29949436 0.26486307 -0.60102814 -0.20106848 0.28216738 -0.5711987 0.09042252 -0.82942414 -0.004790393
18573 -0.56610817 0.3918482 0.15398268 -0.52377987 0.39481738 0.29527652 -0.01593351 0.40443254 -0.2730662 1.1250422 -0.13469306 0.15230608 -0.17215474 -0.30226642 0.112241104 -0.18007036 0.36032644 -0.31324852 -0.9258669 0.23734099 -0.23121443 -0.04381074 -0.459163 -0.19377066 -0.4386977 0.05971999 0.40921995 -0.43764263 -0.017613018 -0.37926152 -0.3199074 -0.23346025 -0.5657625 -0.20689283 -0.5787836 -0.0070748418 -0.014861287 -0.5408023 0.3533163 0.34020185 -0.59529924 0.30676356 -0.3778615 -0.0043831114 -0.07603803 0.43290454 -0.14975385 -0.10327973 -0.43624607 0.5539521 0.15413311 0.29493862 0.4223 0.26611263 0.31834826 0.5018667 0.1900227 -0.36517304 0.04051429 0.23302382 0.27615657 0.13886929 -0.0070118117 0.21766165 0.089447625 -0.29757592 -0.2204951 0.047085386 -0.13778394 0.057848647 0.14364271 0.13508035 -0.015277262 0.53489965 0.40365946 -0.4192325 -0.6481313 0.40923622 -0.44445834 -0.24640535 -0.32290807 0.410522 -0.3709429 -0.0011529607 0.27444917 0.6205222 0.2600238 -0.0057021948 0.20127286 0.14466563 -0.120460324 -0.025197238 -0.33701319 0.2592322 -0.76117057 -0.15361816 -0.3733781 -0.31131715 -0.87490565 0.321456 -0.45073557 -0.27590877 0.16314344 0.1420142 -0.2457089 0.020948527 0.121718675 -0.27784148 0.016159067 -0.1452074 0.2699088 -0.007991343 -0.5863905 -0.54700553 -0.11595401 -0.09100696 -0.07662983 0.07940585 0.53292686 0.22387543 0.2731761 -0.45733207 0.020071516 0.3404347 -0.853911 -0.99228215 -0.4834841 -0.073737465
16968 -0.018771537 -0.097359434 -0.48343268 -0.42546523 0.31333813 0.5661925 -0.17661892 0.17146224 -0.18354398 0.60039395 -0.17514251 0.33178794 0.30206347 -0.22090927 -0.32921496 0.16977958 -0.13189755 0.042949077 -0.82960063 -0.30395848 0.13218087 -0.33704856 -0.15962237 -0.034813963 -0.099884145 -0.06043045 -0.11534918 -0.68133324 0.31990027 -1.0498852 -0.12202043 -0.51907456 -0.3956555 0.15999839 -0.3620884 0.5790476 -0.21408512 -0.7194507 -0.37935856 0.05835266 -0.25149825 -0.0006348124 -0.38603786 -0.67397803 -0.34578535 0.41982314 -0.06710247 -0.47565517 -0.52830833 0.13398641 0.21393824 -0.1443393 0.5371395 -0.3301736 0.48707855 0.99458456 -0.06348005 -0.4841499 0.15824805 -0.1579759 0.68630904 0.25723743 -0.48434296 0.2034983 -0.5926984 -0.1655924 -0.13576138 0.18132329 -0.41508862 -0.2823319 -0.0022834614 -0.6161479 0.32410657 0.96235114 0.5171738 -0.03327563 0.15038636 0.37841633 0.019798342 -0.12607305 0.032947842 0.47583738 -0.42036057 -0.3573881 0.018222023 0.38437673 -0.28608975 -0.23459925 -0.091746986 -0.38331023 -0.6321395 -0.31144652 0.05945756 -0.0676179 -0.22293238 0.41485396 -0.16850673 -0.29854897 -0.8265812 0.78399396 -0.6460566 0.39814332 0.7828519 -0.32509664 -0.17703906 -0.46090928 -0.14997116 0.1453519 -0.28368106 0.014869934 -0.021173408 0.065623 -0.23967443 -0.6631532 0.38279915 -0.02599097 -0.21729812 0.026547164 0.47062886 -0.015497464 0.13390331 -0.59486324 -0.32038122 -0.13646343 -0.7409242 0.05423097 -0.5074736 -0.3096085
20577 -0.36074415 -0.23862486 -0.33664492 -0.15594189 -0.19363093 0.13549483 0.17561655 -0.346353 0.11509439 -0.22237644 -0.13025334 0.24821694 0.57416034 -0.7522595 -0.18353331 -0.184114 -0.0072455774 -0.7540934 -0.5359648 0.32735088 -0.6169398 -0.49622232 0.067568004 0.8299067 -0.42155692 -0.29269278 0.015169686 -1.2027111 -0.43517253 -0.4726873 -0.22688664 0.020665286 0.5406723 0.026521217 -0.24382892 -0.0079957405 -0.05244796 -0.46459815 -0.6084111 0.0036325045 0.107015006 0.3046154 -0.069199815 -0.48354942 -0.0063658464 0.010167372 -0.21847622 -0.43181252 0.28212136 0.2195927 0.10234084 -1.0609775 0.3152272 0.44985124 0.3123004 0.8061758 -0.41787916 -0.57579416 -0.032365065 -0.27269277 0.3332878 0.3454154 -0.34848616 0.099631175 -0.7656696 0.24289857 -0.83202535 -0.072912626 -0.031086057 0.5435163 0.6354299 -1.0211604 0.4132111 0.9306504 0.34886009 0.27033916 -0.20338513 -0.35100576 -0.2298886 -0.3884756 -0.06477267 -0.07880524 -0.36829057 -0.3612254 -0.5154674 -0.18800895 -0.25633258 -0.06346696 -0.2525002 -0.26711008 -0.33164057 -0.2147731 0.37302655 0.3576653 0.50317717 -0.43692198 0.12688416 -0.30482858 -0.111422576 0.26060557 -0.3804882 -0.61432815 0.29167116 -0.48117718 -0.5556966 -0.1671778 -0.091246545 -0.14965074 -0.072491236 -0.62709713 0.42188248 -0.3219169 0.415061 0.098955564 -0.053443354 -0.51873493 0.27704516 -0.25079858 0.10716746 0.024135958 -0.025043923 -0.51219916 -0.27905756 0.10525664 -0.86183923 0.38744804 -0.58628875 -0.24670163
3783 0.37418664 -0.114332356 0.23662977 -0.19040158 0.7670958 0.6727041 -0.089405224 0.017983137 -0.18572429 0.2945821 -0.24036376 -0.23654103 -0.19182308 -0.46799326 -0.33599278 -0.11515831 0.06780991 -0.9304895 -0.58167017 0.037190534 -0.13336943 -0.1093874 -0.22553937 -0.20115091 -0.2853361 0.09932108 -0.08182088 -0.3903001 -0.22339776 -0.10953886 0.008269776 0.1919029 0.15833187 0.3661063 -0.27883458 -0.15028131 0.13921905 0.15851608 -0.015554742 0.4946603 -0.26203933 0.22640999 0.15449007 -0.2523761 -0.24805841 -0.45319209 0.525087 -0.4260913 -0.5141912 0.2728451 0.44141665 -0.9998617 -0.22136816 0.29951355 0.4512075 0.38489854 -0.032776814 -1.5045643 -0.08612271 0.37676242 0.38783938 -0.37345746 0.19741787 -0.08100121 -0.35609493 -0.16129465 -0.35293266 0.30147725 -0.59470487 0.3228102 0.45040035 -0.32912377 -0.055749666 0.55120534 0.03347645 0.29247066 0.124248825 -0.38063174 -0.5196979 -0.27965206 -0.33184445 0.35065985 -0.07411697 -0.1963612 -0.475845 0.20413785 0.063906856 -0.24995603 0.0014984485 -0.24465604 -0.5414469 -0.20020401 0.07339473 -0.051531184 -0.1660693 -0.09306223 -0.37934998 -0.2538739 -0.8645938 0.19297265 -0.14458765 -0.22041455 0.20835312 0.11465428 -0.18137892 -0.784318 0.2971214 -0.39053413 0.16854125 -0.28707665 0.119603135 0.07790701 0.32611635 0.11201522 -0.16797732 -0.13752796 0.01412819 -0.13134551 0.52955264 0.3459117 0.2400334 -0.49687052 -0.078780815 0.16122997 -0.4352231 0.13816361 -0.7849798 -0.060028102
1668 0.012537335 0.0733491 -0.114664614 0.27378663 0.16531412 0.1437316 -0.15515578 -0.46189368 -0.3176051 0.03802306 0.13026868 0.11200731 0.21819222 -0.49582544 0.025751784 -0.15218298 0.3654731 -0.38052523 -0.21816537 0.1854703 -0.27181512 -0.3402286 -0.63168603 -1.022127 -0.50837237 0.030568264 0.059050143 -0.03291315 0.26530045 -0.05420695 -0.11047602 -0.2940519 0.17854322 -0.1531323 -0.03975697 -0.00926101 0.34561005 0.023105606 -0.10396003 0.2193937 -0.10759553 0.40194958 0.2240895 -0.16788524 0.532532 0.029915584 -0.14151515 -0.09734513 -0.558403 0.21596178 -0.08487193 -0.8977342 0.525136 0.38102716 -0.17383558 0.1971619 0.09164974 -0.09784948 -0.8394774 0.6312729 -0.29340988 0.2814339 -0.21511467 -0.6994797 -0.25451815 0.052064195 -0.30722132 0.18342815 -0.035899207 -0.28392878 0.40442255 -0.5072175 0.036883112 0.24978943 0.32327244 0.423654 -0.21584298 0.66321415 -0.32338667 -1.2885237 -0.5725418 0.22201543 0.015702834 0.2624947 -0.29426664 0.7230652 0.39347592 -0.12383062 -0.21896017 0.055628013 0.10716398 0.6346728 -0.09587717 0.4450059 -1.0805643 -0.65659606 0.5552005 -0.32916334 -0.21958774 -0.3622606 -0.18558314 -0.7243942 -0.12352419 0.045745917 -0.27463272 -0.6720509 0.7223664 -0.089857884 0.2613724 -0.0203687 0.45758617 -0.20010513 0.24401116 0.33189154 -0.6569692 -0.43359524 0.47806355 -0.3309702 0.19253823 0.30765548 -0.6796021 -0.43780255 0.6151353 -0.04344018 -0.1325321 0.16181682 -1.307285 -0.057280898
1078 -0.051144376 0.06361713 0.0454447 0.33428344 0.87831503 0.3462637 -0.22387345 -0.066040084 0.24104153 0.058316674 -0.23124102 0.1416218 -0.30308518 -0.4728768 -0.1978052 0.11944064 -0.033324268 -0.5428732 -0.20033321 0.15544951 -0.32447886 -0.47689906 0.10408526 -0.6376366 -0.5364065 0.28038582 0.13219772 -0.51798683 -0.46736366 -0.3710228 0.1613441 -0.5556695 -0.5033554 0.58276385 -0.3227191 0.106563464 0.22047251 0.032793242 0.10284763 0.025328895 -1.1740239 -0.12174267 0.06416883 -0.4548392 0.46531877 -0.20916769 0.40223926 -0.13107724 -0.5859846 0.44458765 -0.4660717 -0.56090796 0.23292883 0.13352987 -0.11433972 0.40866587 0.2658227 -0.42874458 -0.5899641 -0.43216035 0.63936776 -0.2897433 0.0071348585 -0.4671218 -0.3143165 0.38955858 -0.46676633 0.039629016 -0.15149944 0.16065131 0.22658685 -0.56561756 -0.14570351 0.8978164 -0.076464355 -0.3965572 -0.5158924 0.16884246 -0.09562572 -0.24581522 -0.010907664 0.058767505 -0.14765163 0.03752487 -0.06836592 0.26268113 0.4410405 -0.4128151 -0.04825597 -0.13381614 0.09066454 -0.6723787 -0.605332 0.0033104739 -0.18223517 -0.34400606 -0.11973406 -0.64538085 -0.6374112 0.24450196 -0.71717966 0.25463417 -0.33060333 -0.31344882 0.09125553 -0.02262458 -0.16657843 -0.21811597 0.1514226 -1.0899881 0.06847892 -0.18708959 0.44974896 -0.844863 0.7796462 -0.25318363 0.09573876 0.059451252 0.43924174 -0.60707635 0.34033984 -0.39455152 0.156938 -0.037353586 -0.53859186 -0.11826774 -0.10507392 0.14126585
3221 -0.24664928 0.23866254 0.005518018 -0.54055566 0.3339568 0.32250375 -0.4800254 0.50386024 -0.39896846 0.4232529 -0.5764311 -0.17044488 -0.2063402 -0.6257941 -0.5011409 -0.5490648 -0.050542813 -0.009307006 -0.14055793 -0.10770584 0.17891239 -0.21330293 -0.7383539 -0.12920491 -0.089857124 0.52079046 0.16149652 -0.74926305 0.4626336 0.3141912 -0.28239283 -0.10626295 0.025828645 -0.39342585 -0.6088752 0.18070763 -0.035057716 -0.15003976 -0.15333092 -0.25302857 -0.0034448265 0.05648765 0.02338803 0.025672803 0.3861916 -0.034417305 -0.18423015 -0.3893346 -0.59828186 0.13111742 0.6941645 -0.31232414 0.43695325 0.44171315 -0.26109812 0.9017991 -0.19727996 -0.3130246 0.19994418 0.532497 0.39646217 0.13494237 0.03356294 -0.21303108 -0.37409276 0.56200504 -0.18319151 0.042948924 0.024769405 -0.1468918 -0.10892676 -0.5455927 -0.23307528 0.51055926 -0.026409697 0.44705608 0.3308227 0.71264344 -0.35322785 -0.33746687 -0.1895139 -0.045346845 -0.5176391 -0.46077576 0.2504472 0.26180932 0.05470719 -0.30098727 -0.36345556 -0.08183579 -0.127527 0.13772334 -0.62626934 0.10699427 -0.49635947 0.09888185 0.35663846 -0.5700165 -0.31737843 0.22477771 -0.15896481 0.23359692 -0.088687345 0.071444586 -0.28648806 -0.07671525 0.04133957 -0.24597791 -0.16755544 0.2638047 0.473905 0.13802135 -0.10494796 -0.07646681 -0.21377575 -0.5240749 -0.5306135 -0.23137173 0.9854014 0.4131778 0.10848793 -0.34241393 -0.23738042 -0.50224113 -0.27789307 -0.33800024 -0.5571076 0.25543243
18856 0.014342378 -0.03437331 0.21925184 0.38459978 0.8776612 0.4367543 -0.48333925 -0.12092216 0.18315127 0.13937692 -0.1433974 0.23444979 -0.47587758 -0.39456943 -0.27418223 0.43476406 -0.029038738 -0.14891477 -0.0092222225 0.076137386 -0.23920599 -0.43241066 0.11043225 -0.85638964 -0.4294581 0.2704397 -0.06815441 -0.48606154 -0.16461071 -0.38600644 0.13923721 -0.3640234 -0.37784368 0.73554283 -0.36890137 0.24637833 0.5117081 -0.025311237 0.03207261 0.16368009 -0.747708 -0.15475036 0.18700239 -0.4897418 0.1976373 -0.07577438 0.24641828 -0.18160972 -0.6870012 0.16559206 -0.16393004 -0.6587088 0.22026998 -0.09190712 -0.14930613 0.4336549 0.063231915 -0.43965533 -0.5796776 -0.26825714 0.68543667 -0.23827294 -0.114633694 -0.6248685 -0.21394296 0.2801355 -0.29840478 0.14428407 -0.14923947 0.20614429 0.24793977 -0.72920847 -0.18056476 0.5341727 -0.030687269 -0.26300523 -0.44227907 0.09687077 -0.07649856 -0.28440306 -0.04514801 0.06300154 -0.065032884 0.19035637 0.16585754 0.21092802 0.36174768 -0.37442955 -0.14082825 -0.25266767 0.016488057 -0.65376526 -0.55647 -0.19827144 -0.12494458 -0.30197752 0.04634531 -0.49372324 -0.4810652 0.31485745 -0.6981883 0.41307056 0.043512646 -0.45531356 0.1270704 0.0332369 0.09773599 0.15017311 0.28831875 -0.9456378 -0.04499146 0.0044496707 0.4643337 -0.83499634 0.4188291 -0.101375684 -0.27213946 0.21169198 0.5657771 -0.75878376 0.4060882 -0.30913395 0.34969348 -0.13549682 -0.5161685 0.073920645 -0.27909738 0.265652
3731 -0.72081923 -0.2519388 0.042391665 0.24422018 0.5933573 0.68152094 -0.30691808 -0.09713642 0.1834873 -0.18133222 -0.4750545 0.63277596 -0.5029819 -0.620842 -0.048599314 0.6006651 -0.35014376 -0.2648727 -0.11042909 0.37080973 -0.35067543 -0.25628582 -0.16687033 -0.5094398 -0.15332347 0.22909378 -0.46464083 -0.3593537 0.024518978 -0.45130268 0.21980262 -0.1807559 0.26603127 0.048015665 -0.5505993 -0.30854905 0.2096194 0.00818451 -0.008177978 0.39588842 -0.34579188 0.11256372 0.12868324 -0.4460205 0.27900434 -0.115448415 0.19021074 -0.53526396 0.025335955 0.10837882 -0.17193204 -0.6027405 -0.18312839 0.21290633 0.21077435 0.30907014 -0.09654201 -0.94619536 -0.35167006 0.35209557 0.67996216 -0.07981353 -0.08776631 -0.40447694 -0.64314574 0.3907658 -0.05069456 0.10494479 -0.30598798 0.11475508 0.2572223 -0.8169725 -0.05538707 0.52282494 0.33470768 -0.086437225 -0.40699068 0.2243951 -0.039193973 -0.03647882 0.206852 0.3829618 -0.29962233 0.11173733 0.07392867 0.24895775 -0.07085259 0.01219912 0.3367554 0.10727696 -0.59944975 -0.11936503 -0.25258934 -0.33735687 -0.2859499 -0.6978611 0.023320053 -0.027576085 -0.6987305 0.4436602 -0.59607744 0.523833 0.30432823 -0.52962095 -0.107667446 0.26554424 -0.03354623 0.24579334 0.54407495 -0.21791792 0.26478246 -0.11654629 0.11856008 -0.8561432 -0.40692478 -0.3832854 -0.72546816 -0.25105107 0.32603553 -0.27681074 0.30746615 -0.112516 0.40771905 -0.3860477 -0.9694579 -0.41859612 -0.37384284 -0.08167639
9582 -0.36320958 0.05341811 0.03320888 -0.1443135 0.6055882 0.39824432 -0.3061341 -0.0037408236 -0.16275835 0.513632 -0.20276448 0.3143361 0.12786359 -0.7518253 -0.23936996 0.050784737 0.16052191 -0.46364337 -0.37466672 0.13247803 -0.28775945 -0.5487465 -0.35457763 -0.33091533 -0.39102957 0.447779 0.27588612 -0.7506468 -0.041777868 -0.44648072 -0.054143213 -0.22121577 0.0029037877 0.08627695 -0.5183512 0.03261945 0.19130333 -0.4402152 -0.28300682 0.16096649 -0.5083783 0.37539226 -0.07642039 -0.5315373 0.3165538 0.03609522 -0.04603668 -0.520681 -0.480323 0.38846198 0.20255834 -0.8559141 0.37342736 0.111601174 0.17959653 0.93637484 -0.09015044 -0.6832144 -0.16324519 0.090163395 0.36786568 0.32076508 -0.26807395 -0.38299507 -0.54118043 0.2519753 -0.39037147 0.3256367 -0.1413402 0.015130491 0.42275703 -0.72160745 0.058804676 0.6762394 0.080318086 0.117054865 -0.23192179 0.42197427 -0.35481492 -0.69898486 -0.32000202 0.31890884 -0.470459 0.19355196 -0.042952877 0.5241448 0.3140436 -0.37340692 -0.09836973 -0.09410588 -0.33266443 -0.12685353 -0.145865 0.07168088 -0.7087448 -0.3024408 -0.03969141 -0.61752284 -0.474831 0.24641973 -0.51034385 -0.13576725 0.3349244 -0.10782286 -0.20940137 -0.33727628 0.2758328 -0.06707298 0.10743379 -0.4965331 0.34186062 -0.07814806 -0.04454637 -0.58673 -0.04198855 -0.31277817 -0.106083356 -0.14639708 0.6298047 0.102827094 0.09142857 -0.72858834 0.19315459 -0.26528272 -0.749699 -0.19380192 -0.97991085 -0.10214661
12496 -0.40559214 -0.33079284 0.16588156 -0.15556028 0.0059914994 -0.2439588 0.11794313 0.20657124 0.17902946 -0.46928313 -0.606604 0.30783477 0.5472061 -0.57132494 0.19128555 0.008905736 0.39154777 -0.41301686 -0.34653506 0.2168794 -0.09155272 -0.23278111 -0.3946505 -0.13081218 -0.29914564 0.26663685 0.3511872 -0.60913086 0.3217928 -0.4306958 0.027966829 -0.033772957 0.12514256 0.6475182 -0.24080344 0.05570628 -0.2468501 -0.49107453 -0.7700656 -0.21272345 -0.3988813 -0.12926222 -0.23139326 -0.21699116 0.37166005 -0.028775515 0.1898541 -0.4792573 -0.096590325 0.39878404 -0.1910609 -0.83297306 0.6093324 0.13624683 0.14642726 0.5660427 0.35668617 -0.34212208 0.28158814 -0.41953132 0.14416167 0.062696725 -0.24069072 -0.45591673 -0.66277885 0.111038096 -0.19816667 0.3727767 -0.270566 0.4777913 -0.041238923 -0.40194288 -0.2818649 0.91978854 -0.023139147 0.33643982 0.18036102 0.36734447 -0.66845965 -0.6805354 -0.23527755 -0.54259515 -0.21070203 0.3738319 0.4263469 0.27118683 -0.2319748 -0.59739274 0.22776161 0.15003955 -0.4029271 -0.23516653 -0.21177696 -0.18790576 -0.85016924 -0.14765972 -0.1381815 0.16049238 -0.2170028 0.32970518 -0.26826397 -0.70953935 -0.13344386 -0.44547614 -0.17235416 -0.25612137 -0.24091303 0.3781377 0.13946274 -0.30446178 0.62580884 0.29621807 0.0008192479 -0.32204592 -0.340841 -0.37299228 -0.4206259 -0.44451082 0.31939304 -0.10657412 -0.19771755 -0.16403525 0.3399654 -0.39532864 -0.42449927 -0.3411006 -0.5546333 0.0248072
19384 -0.12870198 -0.11888204 0.18980066 -0.2343687 0.8729736 0.4685337 -0.40603226 0.6131663 -0.60472816 0.6750799 -0.47890857 0.10381008 0.3630842 -0.69931054 -0.079329856 0.0916225 0.438903 0.1772112 -0.22228245 0.26287058 -0.77503985 -0.09642005 0.1293371 -0.1232888 -0.4898088 -0.09604685 0.7869761 -0.23148245 -0.58434576 -0.12689815 0.20277125 -0.00072772725 0.3179326 0.14087504 -0.6579521 0.34009603 0.21841615 -0.8003337 -0.27363 -0.012003202 -0.41704202 0.29852238 -0.40215132 -0.36724126 0.20951833 -0.07248866 -0.08204335 -0.68473655 -0.500175 0.15783471 0.4306308 -0.7884047 0.30531335 -0.26588872 -0.2006227 0.50403357 0.11321706 -0.38968915 0.33286265 0.4195352 -0.13985859 0.40308788 -0.25637618 -0.2773576 -0.30686986 0.5057799 -0.5067289 -0.30771464 0.17569442 -0.37161824 0.43206632 -0.55464333 0.5451376 -0.26130942 0.255111 -0.49319556 -0.19800131 0.39040717 -0.5942275 -0.28358072 -0.21762523 0.11558827 -0.33508685 0.39812934 -0.10585985 0.49249306 -0.042450283 -0.14916638 0.10624214 0.076265536 -0.5655759 0.44412792 -0.20344277 0.0589517 -0.28566414 0.17091045 0.41035894 -0.9332499 0.36983827 -0.04391238 -0.10906322 -0.1664893 0.0121006705 -0.123216026 -0.4321743 -0.2794478 0.12592211 0.053509254 -0.5833059 -0.020455113 -0.0020922904 0.10016283 -0.070631914 -0.44526246 0.09533816 -0.03697413 -0.05495838 0.1474699 0.56646025 0.37701717 0.054218598 -0.76698846 -0.38507095 0.11206779 -0.8408493 -0.08137303 -0.5715122 0.08059539
10594 -0.04355035 -0.13908243 0.18706822 0.06548809 -0.28350255 0.4136449 0.21035482 0.07003284 -0.1130668 0.26320165 0.19356441 0.20669009 -0.4593483 -0.06441411 -0.04118599 0.45525753 0.22859682 -0.85239226 0.3101607 -0.35575718 -0.4693641 -0.17239095 -0.56371707 -0.27681115 -0.39501193 0.47594765 -0.010643838 -0.0983175 0.09899848 -0.4073496 -0.06644396 -0.6003306 -0.073774524 0.31096703 -0.2658367 0.07434005 0.029620165 0.031155543 -0.10257058 0.00808199 -0.74289477 0.25241387 -0.032857355 -0.7051444 0.5108039 -0.20758082 -0.22859159 -0.48391032 0.1715197 0.010514428 0.4369379 -0.6901831 0.33345553 0.33702195 0.21883827 1.0810827 0.05297173 -0.4101493 -0.11370694 0.4471698 0.014832317 0.73891556 -0.686961 -0.57194716 -0.2570435 0.08322061 -0.23861805 0.056585833 0.02382458 -0.09632177 0.42379922 -0.2385831 -0.08458592 0.77250564 0.14404474 -0.39209127 -0.16294448 0.45250335 -0.39184457 -0.71708494 -0.39382142 -0.098291636 -0.45854437 0.003183036 0.092076145 0.0010199466 -0.33741432 0.14903818 -0.3933565 -0.7426893 -0.24971089 -0.18007009 -0.12052974 -0.34291252 0.0025765873 0.043900415 0.2561008 -0.43776834 -0.34698695 -0.09293316 -0.48635098 -0.38242993 0.34818944 0.32014874 0.18118902 -0.6199625 -0.04182658 -0.32732862 -0.02313626 -0.45591995 0.8312659 0.19952221 -0.26489043 -0.08366872 0.14561936 -0.036031686 0.31359532 -0.049964737 0.14709301 0.050061464 -0.3761723 -0.18218434 -0.2149827 -0.28147018 -0.36646584 0.052133754 0.071724094 -0.73922116
14996 -0.37206498 -0.25860396 0.34403887 -0.41815314 0.09273935 -0.29335055 -0.1415814 0.18050565 0.10988921 0.18816248 -0.72775674 0.35292348 0.4392623 -0.36857882 0.010327515 0.07598852 0.50361425 -0.2244741 -0.66027564 0.25055072 -0.040513672 -0.3306676 -0.2247003 -0.04003298 -0.4572327 0.37598827 -0.017865269 -0.6589117 0.10214281 -0.53684235 -0.058148198 -0.17397583 0.032972664 0.26020372 -0.18199292 -0.0068239854 0.07500712 -0.7014932 -0.6379568 -0.009718988 0.019199017 -0.33903083 -0.3368712 -0.3495044 -0.10631351 0.11171376 -0.07019254 -0.22298406 -0.13201118 0.34488115 -0.19964583 -0.6234348 0.568611 -0.05783388 0.14344536 0.40095133 0.31102288 -0.44090042 0.4528891 -0.5748526 0.049105443 0.16814552 -0.21371356 -0.028466096 -0.36714488 -0.15164946 -0.33981368 0.59238434 -0.30962756 0.18347628 0.040899076 -0.16409291 -0.071400166 0.73902166 0.18607233 0.29301867 0.103736065 0.42859417 -0.76327205 -0.73505914 -0.28490943 -0.45870748 -0.3959106 0.42142448 0.21581157 0.57537854 -0.5376323 -0.5609236 0.21557032 0.022496913 -0.5605308 0.123793334 -0.10909715 -0.64155 -0.7797356 0.1296274 -0.29205254 -0.36965132 -0.32070854 0.27661905 -0.51692647 -0.3643101 -0.29532412 -0.3804315 -0.20608477 -0.46265554 -0.09818504 0.50496614 0.04463782 0.06457176 0.3233193 0.43557158 -0.2942607 -0.42185137 -0.31993374 -0.037267547 -0.3352945 -0.11446178 0.4261691 -0.4225416 -0.037937026 -0.35453668 0.24977697 -0.36652377 -0.9114327 -0.20652875 -0.6676667 -0.04175953
15717 -0.65162593 0.56195563 -0.7345391 -0.29013723 -0.08374733 0.24537463 -0.30476815 0.036133867 0.0012158101 0.6173372 -0.1404703 0.39459696 0.620599 -1.15488 -0.27582178 0.06882445 0.0026779005 -0.1675869 -0.3936873 -0.35551384 0.3086573 -0.35100368 -0.28355405 0.54964274 -0.121099435 0.568661 -0.018473316 -0.76116115 -0.25419262 -0.5333703 -0.265825 -0.26384875 0.26691473 -0.94028866 -0.19379108 0.35254797 0.030535117 -0.5433688 -0.03986144 -0.20500052 0.1835246 0.26251638 0.051633496 -0.6955725 0.07867258 0.48128462 -0.25002202 -0.55765957 -0.07011955 -0.14712529 0.12952136 -0.094610825 0.6594589 0.020739894 -0.14030018 0.6119716 -0.3612297 0.32964984 -0.038426384 0.109431274 -0.050671384 0.30833134 -0.36458063 -0.30927438 -0.51324254 0.029000973 -0.3888235 0.47487748 0.12886424 0.32689983 0.131197 -0.48094612 0.21499617 0.7336555 -0.2918242 -0.3867876 -0.3619445 0.3830234 -0.023330778 -0.43785036 -0.23765959 0.46302608 -0.94221944 -0.08646865 0.0935812 0.5139638 -0.11304352 0.038508885 -0.12443837 -0.063676536 0.38350987 -0.087934844 0.21151403 0.5133332 -0.9243423 -0.3226236 0.6817717 -0.4508959 -0.0032684226 0.6860126 -0.44110692 0.18364379 0.7085945 0.0047549945 -0.539958 -0.39082143 0.24656302 -0.07947797 -0.15627868 -0.29335907 0.37037003 -0.6697183 0.26084292 -0.541417 0.49520615 -0.49415597 -0.20892118 0.3065798 0.23113762 0.079996966 0.3081843 -1.0355263 0.0450352 -0.5979995 -0.38010192 0.3227192 -0.5476725 0.18493727
10007 -0.05898403 0.04939013 0.15330584 0.42735255 0.86697876 0.25725797 -0.31799054 -0.1001937 0.17688316 0.15286182 -0.014857595 0.12099799 -0.22155371 -0.53244525 -0.3074846 0.09230976 -0.027740614 -0.46592942 -0.19444704 0.02875924 -0.41866848 -0.48790455 0.111377 -0.6325473 -0.64516276 0.15651993 0.131528 -0.67560035 -0.49081933 -0.50360817 0.03153892 -0.58434737 -0.538933 0.72210425 -0.29155368 0.16614135 0.42980045 -0.19928393 0.17146465 0.06016356 -1.011717 -0.11287722 0.034273375 -0.4411217 0.3970028 -0.20008203 0.301401 -0.04149422 -0.5440125 0.30591512 -0.36245066 -0.6847342 0.23084605 0.12350111 -0.04750132 0.55598277 0.0977806 -0.45525578 -0.69297725 -0.36889118 0.57289445 -0.22177835 -0.008133217 -0.46362925 -0.25113097 0.32804313 -0.33777815 0.056305524 -0.05004356 0.25453368 0.28240973 -0.686926 -0.13922088 0.6844108 -0.08040622 -0.33874965 -0.44394064 0.03873773 -0.026513757 -0.18140234 -0.11305543 0.07470316 0.098881766 0.12458685 0.009639999 0.43886107 0.42995012 -0.38218078 -0.18990739 -0.2466745 0.16817395 -0.6507765 -0.5705179 0.11414505 -0.14177804 -0.30577484 -0.1487883 -0.54567575 -0.48905733 0.4243393 -0.7918031 0.14132772 -0.26493186 -0.40855917 0.15916246 0.10055444 -0.015270857 -0.033908855 0.07514872 -1.1620625 -0.022550225 -0.08546843 0.46506983 -0.6976527 0.7483073 -0.22400647 0.116621934 0.12643622 0.36970302 -0.63435763 0.25442293 -0.36298057 0.2326195 -0.058584485 -0.5270279 -0.1440386 -0.12206173 0.17442437
7833 -0.668974 0.36765304 0.27077818 -0.45649603 0.45285422 0.43702716 -0.09934979 0.37108597 -0.37710276 1.0845921 -0.029435627 0.24531095 -0.2361983 -0.32665163 0.030249353 -0.34846538 0.40872374 -0.3545793 -0.8980835 0.3363178 -0.44348344 -0.14683065 -0.47429284 -0.26024562 -0.49766365 -0.051987994 0.51067644 -0.41523796 0.046845704 -0.30465442 -0.37945327 -0.059230294 -0.5694215 -0.32551214 -0.5195945 -0.15586394 0.004037629 -0.46067372 0.36015525 0.39118773 -0.57013035 0.48912588 -0.2507806 0.10753652 0.14381194 0.33241025 -0.17160031 -0.11080207 -0.40841934 0.63399965 0.25221887 0.23403828 0.27251223 0.43035042 0.17717312 0.45369062 0.12517338 -0.35331577 -0.078602634 0.3954314 0.12060046 0.10774205 0.096149944 0.023876999 0.28774056 -0.15120177 -0.3999542 0.041367322 -0.044244174 0.13056304 0.2142965 0.07633502 -0.14813592 0.28377172 0.34166032 -0.36466706 -0.8107377 0.29643965 -0.41512838 -0.29793078 -0.48031977 0.54509175 -0.30310765 0.052219246 0.2112595 0.7263843 0.4065109 0.02663404 0.024258817 0.1816854 0.16543953 0.042790897 -0.29133397 0.41266173 -0.828161 -0.28953305 -0.23923805 -0.5123105 -0.86571443 0.1693384 -0.34197715 -0.42762837 -0.08195335 0.10542347 -0.08413584 0.16030872 0.23583587 -0.42989463 0.18466419 -0.25778982 0.402065 -0.1644737 -0.38401777 -0.3995674 -0.23256251 -0.17347878 0.03338953 -0.004653403 0.48185432 0.35652235 0.448505 -0.4288839 0.14952855 0.5890515 -0.8187063 -0.8844054 -0.5552229 -0.092575885
7108 -0.26943743 -0.12683676 0.18621565 -0.07711956 0.34223804 0.6064132 -0.32804486 -0.37929684 -0.15228273 0.27854005 -0.11280496 0.5683501 -0.58175725 -0.21364516 0.14693157 0.55927545 0.09724655 0.08830941 -0.026988273 0.00961715 -0.32443413 -0.19050723 -0.41503152 -0.522571 -0.19503404 0.08749393 0.3434584 0.13111445 0.106907144 -0.31559217 -0.31243038 -0.09498598 0.1121376 0.2902971 -0.5513395 0.2674076 0.5407254 -0.60702074 -0.39033258 0.040474765 -0.03805159 -0.305546 0.23106584 -0.253682 -0.063967116 0.5211921 -0.12004832 -0.37712896 -0.6699514 -0.21773574 -0.07684888 -0.25632894 1.007809 -0.21262246 -0.04535442 0.6078095 -0.060362425 -0.18066955 -0.101791024 -0.33394367 0.06869656 0.28972694 -0.021249074 -0.035784688 -0.33173975 0.0050908616 0.1746677 0.3015986 -0.17500052 0.116635896 0.071368515 -0.81608695 0.21491838 0.35376838 -0.103008546 0.18366314 -0.24307702 0.5067545 -0.18385258 -0.75231797 -0.5707552 0.14151466 -0.35820612 0.3116442 0.32771745 0.44819567 0.8072586 0.029484484 -0.24716683 -0.089412645 0.16045807 -0.8616833 -0.20368089 0.26017848 -0.5648578 0.35559073 0.5020367 -0.6136581 -0.10473339 -0.030562473 -0.25012428 0.3107701 0.47992426 -0.6037208 -0.040510297 -0.072364956 0.6439638 0.10960099 -0.07698814 -0.4360194 0.24604677 0.21834254 -0.16230358 -0.37105113 0.032115705 -0.045806713 -0.39768454 0.14571849 0.7009118 -0.11894874 0.32113713 -0.7226535 0.2675868 -0.12709737 -0.33505693 0.15536566 -0.6858229 0.2238158
16032 -0.18105188 0.04094585 -0.08142707 -0.5659282 0.26322642 0.09160554 0.01635276 0.1345328 -0.14775391 0.7424018 -0.15469168 0.07963484 0.26684803 -0.27492523 0.041855123 0.112016775 -0.059054337 -0.081955895 -0.8794838 -0.17853414 0.28911644 -0.08909551 -0.26960525 -0.08304219 -0.088618 0.16330805 0.11327646 -0.54274696 0.22109234 -0.710302 -0.046255216 -0.43945643 -0.41661423 0.21419172 -0.3321292 0.37458673 -0.022869676 -0.6952781 0.012349667 0.18108018 -0.4593223 -0.14637572 -0.3536336 -0.6079381 -0.39209312 0.5418413 -0.08202088 -0.17533757 -0.6380745 0.37146416 0.069866486 0.098689266 0.45368248 -0.16744602 0.5585895 0.72091305 0.09237208 -0.5580612 0.35645488 -0.119390145 0.58863014 0.1950535 -0.4264792 0.2741379 -0.39329642 -0.25023648 0.011457242 0.20842402 -0.1610694 -0.0767459 0.03434252 -0.0823817 0.31611368 0.91524523 0.4888379 -0.20324941 0.048621193 0.47966212 -0.2583599 -0.26104727 -0.12867148 0.20384051 -0.4787991 -0.20617516 0.14213601 0.30314147 -0.046976365 -0.17716098 0.22522219 -0.14634615 -0.5542018 -0.09957384 -0.20783953 -0.0468432 -0.28859234 0.26798254 -0.39129218 0.033315014 -0.7761483 0.5513103 -0.6615246 0.20110682 0.61767083 -0.13063401 -0.27364108 -0.4932403 -0.17288701 0.35026506 -0.19024877 0.02045502 0.034664687 0.34690648 -0.5598483 -0.7781123 0.14638075 -0.061686806 -0.2970408 0.24837275 0.571387 -0.06601398 -0.08050951 -0.46072707 -0.17655212 -0.20335215 -0.7130227 -0.37714857 -0.5841592 -0.11935847
6653 -0.9045803 0.012348492 -0.5199303 0.5082938 0.63631153 0.035397522 -0.062801525 -0.0210372 -0.076572 -0.26297083 -0.20052838 0.18802564 0.2717385 -0.24116196 -0.04276587 0.51319295 -0.2816886 0.014855965 -0.12346469 0.2748933 -0.010894439 -0.2818757 -0.38501093 -0.10819343 -0.44185883 0.16098823 -0.19907516 -0.4585422 0.08908586 -0.30619296 -0.32644427 -0.33726853 0.52081627 -0.4207928 -0.4623187 0.3966048 -0.37228847 0.36694524 -0.17835438 -0.31654814 -0.6103165 -0.040755436 0.30328912 0.034903225 0.35070518 0.038443387 0.4657325 -0.519616 -0.47497055 0.25550815 -0.011722903 -0.631372 0.3452388 -0.29808494 0.49363875 0.5476303 0.5559347 -0.03723834 -0.025198465 0.11980775 0.4469348 -0.16859326 -0.5820932 -0.48036742 -0.15474673 1.0051146 -0.32007954 0.6664161 -0.6799864 0.449927 0.52475554 -0.6428676 -0.45408365 0.3751438 0.23631302 -0.5177583 -0.8303345 0.27991495 -0.16389091 -0.7945332 -0.20271155 0.68500984 -0.6121011 0.26824182 -0.46752128 0.8375454 0.11472513 -0.29290798 -0.0053828205 0.010122777 0.20105143 -0.20519501 0.279729 -0.40546152 -0.37135372 -0.8121862 -0.13188608 -0.50586206 -0.3678168 0.09920776 -0.67990357 0.05553523 0.6032855 0.036157545 -0.47242695 0.101554684 -0.29106912 -0.24759819 -0.033190455 -0.90000683 0.65907836 -0.20037621 -0.17633136 -0.22056237 0.2798213 -0.31677118 -0.059815947 0.16588314 0.28863594 0.17469425 0.11146777 -0.16902858 0.40241185 0.10911119 -0.2827562 0.612782 -0.46334425 0.4072064
14493 0.38427046 -0.1419251 0.31742203 -0.30121797 0.7947882 0.62407285 -0.10349646 0.10404452 -0.19701272 0.29834864 -0.36194915 -0.22193795 -0.24781112 -0.36171228 -0.30251718 -0.11403389 0.082335584 -0.92955065 -0.6344397 0.081824616 -0.03251632 -0.121099465 -0.22670725 -0.29213563 -0.25895327 0.16163807 0.021185892 -0.4733184 -0.20474556 -0.24097748 -0.027792325 0.16431285 0.14450075 0.34972787 -0.24134299 -0.024939284 0.031842653 0.09428863 0.038468212 0.44058654 -0.26402137 0.12307973 0.09174072 -0.27815342 -0.19848092 -0.37543273 0.47287166 -0.3456082 -0.51564544 0.18859011 0.41625786 -0.95376 -0.2600426 0.28175488 0.48558155 0.4589601 -0.04085134 -1.4935503 -0.06884581 0.42082235 0.43746963 -0.29573998 0.251145 -0.074164554 -0.25968656 -0.24802712 -0.41249493 0.34473556 -0.46364722 0.33424586 0.35952452 -0.30088565 -0.08549788 0.5000515 0.10271269 0.216935 0.09836776 -0.2803753 -0.5066384 -0.27280116 -0.35719362 0.24323472 0.037364457 -0.20430955 -0.39155555 0.19362752 -0.0025383304 -0.21663958 0.06392106 -0.29919025 -0.4912804 -0.14267892 0.01637637 -0.011189008 -0.19179288 -0.08178419 -0.5708474 -0.21767454 -0.89924484 0.15879154 -0.12281118 -0.14497435 0.16722454 0.18176419 0.0025279056 -0.79287964 0.23795865 -0.27589968 0.19497965 -0.30564934 0.076485574 0.030459363 0.25295472 -0.02802239 -0.2010613 -0.046568394 0.035983544 -0.1460564 0.4666214 0.2925668 0.2748836 -0.43651542 -0.12774318 0.2835434 -0.554577 0.09854046 -0.7063382 -0.028012099
2414 -0.5746425 -0.25041452 0.10626039 0.32011694 0.68077075 0.68022895 -0.3715916 -0.1501931 0.17877416 -0.17284516 -0.39478147 0.5280542 -0.5527073 -0.50413644 -0.13207214 0.59158564 -0.24378657 -0.2543697 -0.057080377 0.38428402 -0.40065137 -0.30650657 -0.0863651 -0.70573467 -0.28004456 0.25781378 -0.3866533 -0.34193093 -0.04279769 -0.39447236 0.2646383 -0.20516744 0.14728107 0.22085571 -0.57918036 -0.2264889 0.35461837 0.037953895 -0.009048453 0.333526 -0.42384702 0.102122836 0.1442926 -0.46454704 0.30700213 -0.16037162 0.18935452 -0.47093785 -0.1235968 0.1032589 -0.14495656 -0.71476644 -0.09536756 0.18937138 0.1527377 0.28524208 -0.119543605 -0.9080736 -0.44753435 0.2527852 0.7588467 -0.11418385 -0.113261506 -0.50207365 -0.60778075 0.3692293 -0.16493559 0.07868377 -0.28951332 0.18456687 0.26353577 -0.8678342 -0.10309436 0.5489117 0.3560716 -0.108653225 -0.41338715 0.24496071 -0.00071668805 -0.04833169 0.16191527 0.31353644 -0.22831714 0.09291689 0.15714452 0.15191741 0.0052922824 -0.08659285 0.22316274 0.0010698392 -0.51157796 -0.23592469 -0.32981414 -0.33414838 -0.1631171 -0.63847625 0.06663785 -0.11911963 -0.66505426 0.4218035 -0.6461273 0.556954 0.23323382 -0.59419775 -0.10382483 0.28467813 0.012926984 0.22865689 0.5399329 -0.41679305 0.203579 -0.11494817 0.25777534 -0.88033533 -0.30775753 -0.34920424 -0.62528235 -0.11900599 0.37223685 -0.5005432 0.35121867 -0.12652536 0.43460578 -0.3202877 -0.91653633 -0.35388282 -0.36954796 -0.044845257
22164 -0.39839536 0.3232632 -0.34401622 -0.5447083 0.082620256 0.2026432 -0.2573176 0.13681696 -0.4882184 1.1666856 0.07062355 -0.035776474 0.044888876 -0.44842657 -0.3516573 -0.14451031 0.21041247 -0.17833288 -0.3158467 -0.08382383 -0.04099922 -0.39646572 -0.08690943 -0.17784646 0.25266197 0.7431938 -0.38611698 -0.066233546 -0.014966732 -0.08215098 -0.12897246 -0.113374405 -0.12808399 -0.7781709 -0.22653827 -0.27161884 0.6967293 -0.026511785 -0.040075228 0.07259208 -0.38932642 0.14574447 -0.15030716 -0.6862192 -0.30672827 0.31453994 -0.27609318 -0.40264145 -0.67622405 -0.11276106 0.12001437 -0.47761518 0.7240928 -1.3291071e-05 0.21807297 0.5954132 -0.14094172 -0.50686157 0.1456266 0.024267204 0.038631964 0.28457972 -0.19793706 0.25517756 -0.68812877 0.13897653 -0.13141811 0.07454298 0.11316181 -0.8862144 0.43815574 -0.10764108 0.19268721 0.20243588 -0.08342548 -0.032437734 -0.12284217 0.8773685 -0.57442796 -0.777967 0.018495135 0.6869712 -0.14625214 0.28370494 0.00379236 0.5537222 0.35105786 -0.19155383 0.084982246 0.30070755 -0.28688774 0.15235977 -0.49125165 0.6016701 -0.12373522 -0.3339917 0.050345525 -0.3796007 -0.26474455 -0.072641686 -0.24820864 0.33884883 0.44475764 0.12967522 -0.58298963 -0.21139672 0.3192798 -0.1322605 -0.40881017 -0.39756164 0.15519376 -0.3051235 -0.73146397 0.1850199 0.24685155 0.22829874 0.26780462 0.5172693 0.17935471 0.62028205 -0.0930148 -1.078594 0.17009437 -0.62794167 -0.18719274 -0.48858526 -1.1140641 -0.24700215
1617 -0.045761857 0.002631551 -0.30014542 -0.19598684 0.44493452 0.23564336 -0.028823072 -0.08682721 -0.08031247 0.519239 -0.3775429 0.2495732 0.02746493 -0.31148595 -0.075106286 0.13164179 -0.3809472 -0.19996196 -0.6765965 0.07627611 0.2555772 -0.25133213 -0.12344666 0.16973807 -0.3342746 0.29976442 -0.12553415 -0.93643266 -0.057924427 -0.57180107 0.26552293 -0.42087206 0.2667119 0.27956557 -0.5264477 0.4561644 -0.018103393 -0.65651083 -0.459473 0.009273569 -0.42292643 -0.2788882 -0.060050905 -0.56086004 -0.22178787 0.4808828 -0.3866912 -0.37679443 -0.07558958 0.2465969 -0.0802591 -0.048483253 0.75811136 -0.085332714 0.25916928 0.9945501 0.0015853063 -0.86160076 0.3503043 0.043008458 0.8335029 0.48437834 -0.3311831 0.15092367 -0.652444 0.08608143 0.38477856 0.3530392 -0.124915615 0.32529265 0.007881782 -0.3435944 0.38311276 0.8825805 0.3950647 -0.083687805 -0.27395514 0.40740833 -0.031734593 -0.09550303 -0.038833506 0.24574006 -0.6159133 0.03562613 0.18139133 -0.0055277534 0.013711496 -0.030539235 0.26952028 -0.4110622 -0.33210382 -0.37886792 0.29126012 -0.21380888 -0.13955866 0.28773344 -0.36900824 -0.31120926 -0.51765966 0.86619115 -0.40273386 0.36260167 0.7560783 -0.27108684 -0.14616306 -0.49892557 0.06496726 0.36001986 -0.106062464 -0.14921513 0.21603732 0.1135776 -0.25080296 -0.9208364 0.295431 -0.18071552 -0.37776557 0.4191515 0.5180539 -0.25851715 -0.03307268 -0.47561902 -0.2651304 -0.22510089 -0.86171615 -0.07177943 -0.4681077 -0.08275874
17194 -0.07955217 -0.33064777 0.16697003 -0.22536631 0.45532155 0.3876361 -0.12254062 -0.25079224 -0.43154198 0.22020906 0.17773452 0.47020206 -0.119212866 -0.57971805 0.10414995 -0.5775998 0.23508106 -0.091879085 -0.22484472 -0.03424705 -0.3276959 -0.1185049 -0.05891654 -0.24960482 0.17544283 0.04681313 0.8837727 -0.80414677 0.17678776 -0.39595953 0.2017235 -0.012020894 -0.08409142 0.21204384 -0.39947218 -0.09601629 0.20834862 -0.70785725 -0.23891364 -0.17839846 -0.15664053 0.54265726 -0.33921343 -0.5857027 0.5838618 -0.21799362 -0.6801309 -0.024123933 -0.08552388 0.085286185 0.36468357 -1.0078741 0.41296065 0.34801286 0.20208672 0.78770465 -0.10712595 -0.7456874 0.09498985 -0.14087923 0.60706544 0.75834954 -0.10270335 -0.18152174 -0.36908218 -0.021152234 -0.37456313 0.22036536 0.5146317 -0.19760059 0.13513385 -0.83254033 0.02053342 0.04191899 -0.21799214 0.32954076 0.14932531 0.29816464 -0.07259609 -0.04817285 -0.51716876 0.15225714 0.29858485 0.21130347 -0.024553875 0.07676116 0.6136929 0.054713383 0.16827977 0.017991286 -0.008545812 -0.5432602 0.1634925 0.124604836 -0.2591065 0.22846405 -0.10160914 -0.56278867 -0.14069243 0.06226953 -0.04822802 0.32525197 -0.15101007 -0.027606213 0.5702741 0.16265765 0.11643754 -0.6070247 0.10874646 -0.74534947 0.5069455 0.14623111 -0.13765351 -0.0408932 -0.01372455 -0.17854354 0.36521736 -0.36124215 0.5583656 0.72513646 0.011262115 -0.74795496 -0.034828622 -0.053224653 -0.59013927 -0.29645684 -0.75005084 -0.25113735
19753 -0.49264702 0.19605698 -0.06747513 -0.10423008 0.76037806 0.48315635 -0.36148122 0.0035188727 -0.27207634 0.64663994 -0.15281765 0.37856445 0.15175717 -0.9974301 -0.3610062 0.07063764 0.19962183 -0.48666134 -0.41947377 0.14002156 -0.34872574 -0.7071771 -0.38859665 -0.5845744 -0.4607551 0.5072784 0.23702206 -0.93479896 -0.06128321 -0.57998747 -0.11196028 -0.29162925 -0.041466303 0.0064256615 -0.6109115 0.1662267 0.22434278 -0.5808872 -0.3377131 0.20601045 -0.619153 0.4003968 -0.11333196 -0.6620223 0.27817327 0.025445782 -0.11042081 -0.69798964 -0.5856573 0.4216807 0.30254555 -0.96862847 0.47303903 0.2080073 0.27457413 1.1165967 -0.08775899 -0.824828 -0.25159937 0.09259338 0.46479225 0.33884916 -0.43115827 -0.51045233 -0.50854635 0.20199531 -0.4403431 0.40308875 -0.14846782 -0.058514006 0.63288206 -0.83691925 -0.0031514147 0.73919475 0.1337532 0.09504013 -0.3474689 0.4264997 -0.35100827 -0.720015 -0.31911626 0.44370776 -0.664102 0.30662948 -0.009140535 0.5883089 0.3636319 -0.4961258 -0.060374506 -0.2532937 -0.5067487 -0.19659936 -0.20370536 0.13638519 -0.771684 -0.4146512 -0.16434719 -0.7055204 -0.60115224 0.3469124 -0.68904746 -0.19694395 0.39828774 -0.083396874 -0.42830133 -0.36699554 0.39977568 -0.15587029 0.19558436 -0.7809847 0.3524111 -0.21107121 -0.024957145 -0.7048713 -0.092270955 -0.28380677 -0.194999 -0.09552333 0.81521565 0.19375028 0.19672571 -0.8998209 0.27371475 -0.32036364 -0.9495455 -0.3297889 -1.2369958 -0.1297007
18006 -0.10584614 -0.38450417 0.3861409 -0.481463 0.37945655 0.3325023 -0.10677562 -0.34489554 -0.4564323 -0.10285663 0.38517 0.32727942 0.13032185 -0.6811852 -0.12178846 -0.23222466 0.3351634 -0.6086453 -0.032636035 0.36907855 -0.22475702 -0.47686505 -0.06904931 0.25537297 -0.08047491 0.05046527 0.9834219 -0.5932016 0.16791262 0.0742429 0.23957993 -0.26760122 0.24100865 0.025943415 -0.2672569 -0.38739568 0.19138084 -0.5548474 -0.31130448 0.33181146 -0.24323568 0.9206488 -0.3896017 -0.57821256 0.7575315 -0.04076047 -0.5400822 -0.39311123 -0.54373324 0.06264509 -0.015508004 -0.8879394 0.17723913 0.23043488 0.3180081 0.73973936 -0.13256381 -0.56576866 -0.2670513 -0.18663087 0.5798668 0.5309744 -0.16377744 -0.33792174 -0.32871526 0.25384158 -0.76973116 0.063736975 0.37540728 0.078839615 0.18393208 -0.727766 0.19475052 0.3825504 -0.37715775 -0.12869842 0.24214654 0.51604176 -0.48218462 -0.27954373 -0.3658495 0.2700611 0.0074756136 -0.10124027 0.34349635 -0.16264585 0.43104443 0.2153869 -0.3044321 0.0657809 -0.34755966 -0.56018174 0.18530796 0.123563774 0.005201372 0.0031855116 -0.3517473 -0.33682415 0.033945687 -0.0728762 0.3421401 -0.18638837 -0.24895313 0.06532351 0.5189392 -0.14412017 0.07980844 -0.5377058 0.19679947 -0.74209017 0.24317157 0.0880889 0.1469352 -0.20461632 0.33013937 0.018161615 -0.020670915 -0.53860784 0.13916194 0.24187113 -0.4473247 -0.87206364 0.058090534 -0.15099663 -0.30512753 -0.31097704 -0.7019629 -0.014009829
7887 0.07155643 0.09171622 -0.16031435 0.26108932 0.48542023 0.108325474 -0.021892246 -0.27785838 -0.29200485 0.012887917 -0.5247935 0.38253248 0.09139368 -0.3147342 -0.3926816 0.14196272 -0.004690937 -0.4865704 -0.17974444 0.28470853 0.052933782 -0.11535271 0.065585785 -0.33248717 -0.16271101 0.1325985 -0.1395688 -0.05218142 -0.6780544 -0.10165215 0.15282647 -0.24635138 5.31191e-05 -0.10445041 -0.14958887 -0.7100019 -0.60874563 0.23101848 -0.3693758 0.30751076 -1.1880867 0.2852001 0.034307048 -0.32580167 0.6334586 -0.14247014 0.35254052 -0.6219062 -0.5413565 0.67137486 -0.12945229 -0.019574432 0.27880803 -0.094731756 -0.15528172 0.3577483 0.4647941 -0.33113113 -0.2263586 -0.09300512 0.6731879 -0.10310426 -0.06999828 -0.1349313 -0.6843637 0.4172101 -0.38172108 0.10323434 -0.10467202 0.07957562 0.32760778 -0.19326273 -0.11205469 0.93009555 -0.4093412 0.2742613 -0.20326737 0.48921397 0.13521437 -0.30963498 0.26215035 0.06891254 -0.494364 0.22630139 -0.2665363 -0.08677802 0.4103141 -0.39175165 0.1065705 -0.06409668 0.0012313571 -0.28535777 -0.4507627 0.1828957 -0.47152114 0.012616105 0.11804665 -0.93217117 -0.5947679 -0.44973028 -0.15345971 0.046249915 -0.27624223 0.03310047 -0.26443267 -0.4003418 -0.0019972092 -0.6080199 0.17560516 -0.23753974 0.4190086 -0.42564565 -0.007889929 -0.43949875 0.47023034 -0.37896532 0.09782245 -0.2895638 0.33252493 -0.08561963 -0.12375278 -0.53145903 0.028638497 -0.2720543 -0.17197369 -0.19338758 -0.40820998 -0.12912664
21251 -0.14647026 0.19724368 -0.105040625 0.37025192 0.16273308 0.40620905 -0.25496855 0.021755077 0.15036596 0.49461886 -0.122428015 -0.012239974 0.08233042 -0.09415289 -0.38010904 0.14458336 0.23007783 0.04884217 -0.36273804 0.012793471 -0.27336213 -0.6351588 -0.3305634 -1.0122408 -0.40691933 -0.05063635 -0.22650443 0.030026227 0.11603627 -0.12876329 -0.048357513 -0.20770848 -0.2381773 0.21117277 -0.050617382 0.06346045 0.83673906 -0.037095804 -0.19495234 -0.084377274 -0.29068336 0.06541899 0.2540193 -0.3413145 -0.045588445 0.027979987 0.025577124 0.076180235 -0.77930796 0.3707744 -0.08893617 -0.4607537 0.529085 0.09663735 -0.31754133 0.19516665 0.35903266 0.0100217145 -0.7447595 0.3092248 -0.10533398 -0.0856452 0.017779242 -0.7089483 -0.38775817 0.12950337 -0.45962754 0.30670998 -0.23447147 0.054388683 0.21867393 0.032261077 -0.11987521 0.5800463 0.31889102 0.2166514 -0.32194817 0.33939305 -0.047658186 -0.9528141 -0.37753338 0.29843628 -0.065018594 0.24727744 -0.022160742 0.7209223 0.12634435 -0.28918886 -0.23259671 -0.027809309 0.22828452 0.17347077 -0.49736845 0.13679883 -0.80525273 -0.2633626 0.14647268 -0.12028733 -0.1669869 -0.31057188 -0.38554236 -0.5483158 0.3159975 0.042714473 -0.30803925 -0.59471434 0.6897768 0.14426178 0.13744974 -0.1958167 -0.11732703 -0.33723733 0.26461557 -0.34608227 -0.49740818 -0.2521767 0.24983679 0.11258373 0.52478665 -0.580154 -0.104395725 -0.27123857 0.595975 -0.22452253 -0.12256431 0.06416476 -1.2721503 0.14820917
11244 -0.38501167 -0.15015516 0.04510417 -0.1423094 0.23135138 -0.060894504 0.06357362 0.39529714 0.21008368 -0.22392176 -0.55258584 0.16452193 0.32865828 -0.3896765 0.29795143 0.0015664572 0.5337197 -0.45769936 -0.43625587 0.17673434 -0.12235641 -0.064872764 -0.53858757 -0.24614587 -0.27570397 0.29920417 0.580229 -0.4884847 0.36055905 -0.37670973 0.02171316 -0.1136002 0.07738108 0.7487168 -0.4153832 0.32360423 -0.20443495 -0.20649004 -0.53852195 -0.34496906 -0.6609637 -0.050162382 -0.30771068 -0.05503088 0.4537938 -0.07746544 0.16626336 -0.5814478 -0.1676995 0.26162994 -0.13904326 -0.72126186 0.63353795 0.21538287 0.122822315 0.61454064 0.41589195 -0.34831163 0.11198918 -0.3946228 0.28320926 -0.02920055 -0.066261925 -0.5442376 -0.6856348 -0.007044356 -0.18072076 0.08740819 -0.2135039 0.35059205 -0.07369194 -0.38410085 -0.25239912 0.89782286 0.030650048 0.1484663 0.030207286 0.38054472 -0.68694854 -0.57248896 -0.22140774 -0.51672375 -0.22789218 0.58468556 0.5181274 0.25718555 -0.084396556 -0.5180886 0.3736413 0.2495432 -0.46804225 -0.43244013 -0.29414952 -0.16734453 -0.8929099 -0.13367955 -0.27460703 0.29679656 -0.31494844 0.34877238 -0.24070916 -0.752832 -0.03322641 -0.37267575 -0.23035643 -0.14535989 -0.3084022 0.24358387 0.19959588 -0.26747024 0.487188 0.17724946 -0.12330755 -0.42483085 -0.15256163 -0.25186095 -0.39190695 -0.31357154 0.39534634 0.19360891 -0.07273901 -0.09451261 0.2420523 -0.545714 -0.36222923 -0.78370744 -0.3519769 0.08884272
22316 0.22619955 0.002578932 0.051504955 0.1203272 0.49571404 0.23265716 -0.26408958 -0.22081652 -0.12565975 0.71844393 -0.12284152 0.10863774 -0.50070715 -0.1763718 -0.0030606017 0.43580988 -0.021695519 0.14178213 -0.06904024 -0.0061018304 0.086143844 -0.087368794 -0.02103192 -0.60577357 -0.19340205 0.26622963 -0.023105616 -0.42314836 -0.0054513672 -0.44930243 0.10964015 -0.2808149 -0.17066836 0.62654406 -0.554135 0.37683085 0.72322124 -0.37255272 -0.3050797 0.2126043 -0.30113906 -0.35599476 0.03511581 -0.544663 -0.37779462 0.42951483 -0.27087304 -0.15922475 -0.72055924 0.13302056 0.054222804 -0.17871144 0.87131137 -0.29500875 -0.13925944 0.7431959 -0.03578527 -0.55238944 -0.060422577 -0.3635266 0.50763375 0.18105887 -0.06550471 -0.099254355 -0.24874584 -0.086801894 0.15540288 0.25691968 -0.056685932 -0.1901512 0.15832362 -0.420741 0.16944568 0.41044423 -0.20336016 0.20727874 -0.45898953 0.13908425 0.00078145915 -0.27451256 -0.092510946 0.21169032 -0.22782345 0.49327293 0.3399166 0.10873262 0.5353697 -0.19095646 0.21677531 -0.19889228 -0.00601938 -0.66742253 -0.3213119 0.11386868 -0.31288946 0.3137601 -0.042053368 -0.53482527 -0.15949427 0.32931155 -0.3616305 0.4410542 0.2970828 -0.36393008 0.11219215 -0.15181234 0.4564712 0.3294103 0.048656847 -0.49606088 -0.024488788 0.10401547 -0.3284519 -0.5253086 0.291629 0.19296344 -0.50251144 0.29092214 0.5828095 -0.40484676 0.169716 -0.38208178 0.17254832 -0.13203792 -0.44894665 0.10810101 -0.5611811 0.16641179
4372 -0.23783799 -0.24707766 -0.1741791 -0.31939983 0.10641535 0.12613001 0.28907064 -1.0587062 -0.6482703 0.20063473 0.34237427 0.015596254 -0.026258787 -0.72661835 -0.14696637 -0.23794983 0.01404899 -0.29375818 -0.4322247 0.06467847 -0.034034636 -0.5269451 -0.405926 0.09263474 -0.2606668 0.09316332 0.36917177 -0.53355175 0.07248082 -0.18087867 -0.021053584 -0.29588255 0.22498418 -0.421929 -0.15093291 0.06325887 -0.26416817 -0.51146305 -0.952948 0.044971455 0.1402607 0.18771338 0.09364432 -0.29241326 0.30997488 -0.079083435 -0.4610752 -0.26557732 -0.022543184 0.28381896 0.5037968 -0.5757802 0.8212525 -0.083662555 -0.07678056 0.6080028 -0.009692205 -0.56423956 0.326212 0.15745689 -0.16824965 0.4413807 -0.14083397 0.100599654 -0.3015163 0.08656543 -0.49030778 0.24198323 0.33007267 -0.364896 0.47268513 -0.5032273 0.27746138 0.21660821 -0.29048827 0.16723941 0.06812195 0.04385761 -0.1433459 -0.8596639 -0.6584904 0.7944757 -0.52845937 0.1901113 -0.6251439 0.35446462 0.48119134 -0.5218068 -0.17014465 -0.13247475 -0.09039333 0.20425113 0.3844756 0.3273337 -0.64649683 0.40633038 0.17821896 -0.2632045 0.16897072 -0.46748903 -0.11325735 -0.4606907 0.29095355 0.42919976 -0.29903385 -0.34107274 0.24400318 -0.7288156 -0.19984153 -0.069090396 0.53544205 -0.07351834 0.08567311 0.06476981 0.07358437 -0.6835802 0.8614256 -0.39401948 0.40658745 0.22424652 -0.3776684 -0.808899 -0.07977815 -0.1455448 -0.4404654 0.16310287 -1.1530612 0.01659197
8327 -0.2848886 0.17493932 -0.3749448 0.018289618 0.24934712 0.39186215 -0.1891658 -0.122736834 0.15849727 0.18767285 -0.14214478 -0.20306799 0.08377259 -0.38982716 -0.4576506 -0.42147577 -0.07980366 -0.55467653 -0.43970034 0.23409419 -0.6094678 -0.8170948 -0.058666103 -0.51463264 -0.8509873 -0.29398072 -0.1324393 -0.87664133 -0.39800465 -0.14734752 0.12316616 -0.5171227 -0.47753012 -0.17194027 -0.028653376 -0.06689702 0.16057517 -0.050709464 0.16339155 -0.20569418 -0.81839484 0.27095184 0.29606095 -0.42577988 0.6781294 -0.15913367 0.07696109 -0.19343045 -0.23900786 0.58098394 -0.15179539 -0.5458386 0.06809545 0.372018 0.0847672 0.57943213 0.037498232 -0.057140235 -0.6993744 -0.013424591 0.36608973 0.066431984 -0.045308337 -0.61955255 -0.375631 0.39027694 -0.86802405 -0.16051692 -0.011155573 0.368313 0.409622 -0.2667771 0.1318035 1.0491887 0.3222908 -0.055122707 -0.41632184 0.29688182 0.37391144 -0.08473371 0.0029627588 0.737141 0.11007993 -0.35527468 -0.18031654 0.39162043 0.3656459 -0.19107136 -0.6209808 -0.38871607 0.11821699 -0.18817362 -0.5085141 0.5112652 0.047160257 -0.19245519 -0.038602352 -0.19158794 -0.22037922 0.1769441 -0.6709551 -0.10747748 -0.08875586 -0.05065487 -0.38132083 -0.04318474 0.12199757 -0.3757591 -0.44926935 -0.79006535 0.06753067 -0.39611349 0.5969543 -0.2581972 0.25274894 -0.6834616 0.94195795 0.030189905 0.18493883 -0.287753 0.19170699 -0.37336734 -0.019427795 -0.21707767 -0.47688416 -0.10360125 -0.6001756 -0.050893202
20617 -0.29954895 0.08791115 0.036021713 -0.08880711 0.5603883 0.36335105 -0.2459759 -0.008046284 -0.13426429 0.42822978 -0.14601497 0.29452452 0.13205463 -0.5892656 -0.20476946 0.06746062 0.11520279 -0.42930397 -0.3728981 0.13043563 -0.23409478 -0.44968298 -0.3172505 -0.3154523 -0.36052302 0.43781817 0.2629215 -0.6177577 -0.029700084 -0.4349156 -0.091089725 -0.17334513 0.029177602 0.02548486 -0.44314507 0.04953977 0.14934447 -0.36180782 -0.29472238 0.14579272 -0.45566374 0.28495747 -0.059028186 -0.46117753 0.32994545 0.03782379 -0.04533462 -0.48592085 -0.4309791 0.3344119 0.17713034 -0.7098273 0.36471123 0.09502344 0.1260431 0.8592449 -0.033718675 -0.65017056 -0.15503003 0.08309927 0.32849422 0.29754314 -0.23815979 -0.34971017 -0.5086403 0.15563095 -0.37301525 0.29652566 -0.13964653 0.024256367 0.3843283 -0.6003907 0.03175811 0.61079437 0.087107815 0.12018883 -0.19197792 0.39565536 -0.27701375 -0.5617706 -0.2875139 0.28205174 -0.3948391 0.14359696 -0.008135879 0.4275193 0.26574144 -0.32959825 -0.0333427 -0.12959473 -0.2807418 -0.111074015 -0.13908193 0.0330736 -0.56694096 -0.20109181 -0.024814136 -0.52155066 -0.42090717 0.25144517 -0.51410174 -0.095239624 0.2686795 -0.10172568 -0.19517022 -0.29488018 0.25095475 -0.06481589 0.04693177 -0.4167772 0.31394836 -0.07431733 -0.025309125 -0.52307963 -0.027501587 -0.25331482 -0.07324531 -0.10415159 0.52482235 0.060463812 0.095487736 -0.60692394 0.13199669 -0.2792224 -0.67055255 -0.16966406 -0.8536994 -0.09493175
2644 -0.22612068 0.1136702 0.24811792 0.63304245 0.9076168 -0.18059513 -0.39754578 -0.11358816 -0.14609775 0.28794283 0.5330844 0.4547863 -0.14082229 -0.7005166 -0.73707455 0.2566165 -0.12489952 -0.28327492 -0.07417369 -0.38572544 -0.114395656 -0.26113355 0.038886625 -0.3874427 -0.9097192 0.016488126 -0.34509906 -0.9137933 -0.2214334 -0.7533764 -0.36844888 -0.3325995 -0.17605565 0.6192278 -0.20979474 -0.015703874 0.3341315 -0.3677228 0.03394156 0.3322332 -0.2970176 0.238821 0.21026294 -0.44985634 0.44053572 -0.05581193 0.2258306 0.026417816 -0.61291575 -0.044300087 0.15589117 -0.82420087 -0.04309797 -0.16270699 0.33338833 0.7839139 -0.009738936 -0.41161138 -0.74550956 -0.054278698 0.3884099 -0.023756973 -0.13287283 -0.7055 0.03194254 0.24598941 0.16161224 0.42699435 0.22183035 0.6337035 0.7495529 -0.7623786 -0.4239185 -0.19620954 -0.6116439 0.0075515243 -0.25785574 -0.22075345 -0.0696366 -0.4421044 -0.21002321 -0.031483762 0.14859647 0.44495252 0.043778695 0.7653091 0.21598895 -0.27960575 -0.40428004 -0.2596043 0.3394945 -0.09287927 -0.04662016 -0.075663924 -0.39475974 -0.75577253 0.07600231 -0.63945276 -0.32875308 0.37680504 -0.5852049 -0.2733428 0.30675668 -0.4142439 0.07067789 -0.00902463 0.20742287 0.36444497 0.10726455 -0.88988984 0.09357019 0.18834703 0.19220918 -0.3922907 0.46612594 -0.35860944 -0.09828862 -0.0025401537 0.3686504 -0.2748825 -0.10878124 -0.43104082 0.50235486 -0.11192757 -0.1609616 -0.21296155 -0.3982408 0.16269578
13272 -0.3475571 0.26209593 -0.15277752 -0.66931283 0.42368045 -0.016394094 0.00921851 0.11950738 -0.32721975 0.8405875 0.14918002 0.1989978 0.010915043 -0.44960833 -0.2251094 -0.31873834 0.11159993 -0.162834 -0.39024618 -0.23413323 -0.011246056 -0.16290495 -0.25006968 -0.23806715 0.26601622 0.48632476 -0.06544982 -0.051567186 0.036065876 -0.28359163 0.055300254 -0.32543653 -0.5086035 -0.7781248 -0.027928375 -0.21264766 0.24989043 -0.6074879 0.11016996 0.14600654 -0.5009815 0.112288386 -0.4467946 -0.52924854 -0.062033135 0.18989064 -0.2853676 -0.3420618 -0.7873123 0.28430077 -0.03520734 -0.051988274 0.51429945 0.084840484 0.6437243 0.6028388 -0.012411527 -0.30792367 0.14523941 0.25558257 0.15228124 0.15957926 -0.3030123 0.3177342 -0.26594242 -0.18303211 -0.21648411 0.036751013 -0.0919342 -0.26848972 0.43851927 -0.07506496 0.5833957 0.56191933 0.17836332 -0.5788874 -0.28504625 0.7711866 -0.39793032 -0.12486183 -0.007775318 0.52314126 -0.34352884 -0.063349746 0.055093702 0.45206 0.48378107 -0.33178204 -0.0069203298 0.20574783 -0.408784 0.11042479 -0.26774642 0.19041084 -0.23799272 -0.4230247 -0.22303638 0.05453261 -0.98614174 0.22228615 -0.39038467 -0.14389871 0.37547618 0.02046692 -0.60331196 -0.4730153 -0.11020556 -0.039595217 -0.44988295 0.06655861 0.26205802 0.16131212 -0.48736548 -0.41028523 -0.121215135 -0.1318033 0.29421973 0.5323385 0.52699906 0.14035319 -0.1896572 -0.6803282 -0.16058889 -0.44663927 -0.60349405 -1.019422 -0.9594321 -0.135433
22015 -0.7987566 0.09017675 -0.16665334 0.0190373 0.6677124 0.155415 0.0057298434 0.085659996 0.04424115 -0.09471549 0.09487473 0.19636011 0.30452684 -0.59904957 0.06343831 0.18237127 -0.23403396 -0.16018464 -0.35499832 0.023924848 -0.14243768 -0.38406548 -0.10541889 -0.027578421 -0.48821735 0.23607521 0.27763253 -0.67172563 0.18537399 -0.3973285 -0.2298041 -0.3062329 0.4237611 -0.26997665 -0.113090545 0.32282943 -0.28377685 0.29311964 -0.042510353 -0.15988226 -0.559031 0.15095477 0.22582234 0.031597357 0.55447304 0.009078995 -0.016350754 -0.36547336 -0.46026096 0.23461778 -0.06878021 -0.53290266 -0.021966038 0.07567588 0.68293965 0.5763674 0.27837607 0.086726815 0.0054165237 -0.031987704 0.42057472 -0.03399152 -0.30836728 -0.37590683 0.25685477 0.5265753 -0.37806162 0.48649946 -0.4215282 0.35316658 0.7451543 -0.42663527 -0.16945408 0.33622843 0.029259728 -0.35425606 -0.38530684 -0.025419855 -0.19525021 -0.7053607 -0.33497587 0.42975965 -0.40810198 0.23646346 -0.3002347 0.6720889 0.18991564 -0.097760685 -0.02428543 0.1431915 0.08604473 0.08636998 0.44731832 -0.18512711 -0.17067574 -0.96383536 -0.36719915 -0.24509221 -0.4335652 0.013018772 -0.47981286 -0.123006605 0.12361655 -0.1647466 -0.099907205 0.4153576 -0.42261186 -0.28430912 -0.31368396 -0.6773395 0.6166739 0.0278422 -0.0008441217 -0.11682181 0.53765893 -0.49029213 0.19741262 -0.15682454 0.19399808 0.18222979 0.20537014 -0.4899207 0.19536604 -0.03862207 -0.45749184 0.14316303 -0.20649952 0.16997151
